digraph Tree {
node [shape=box, style="filled", color="black", fontname="helvetica"] ;
edge [fontname="helvetica"] ;
0 [label="X[97] <= 0.5\ngini = 0.46\nsamples = 6337503\nvalue = [2269862, 4067641]", fillcolor="#a7d4f4"] ;
1 [label="X[104] <= 0.5\ngini = 0.474\nsamples = 5762021\nvalue = [2228831, 3533190]", fillcolor="#b6dbf5"] ;
0 -> 1 [labeldistance=2.5, labelangle=45, headlabel="True"] ;
2 [label="X[99] <= 0.5\ngini = 0.48\nsamples = 5509905\nvalue = [2202357, 3307548]", fillcolor="#bddef6"] ;
1 -> 2 ;
3 [label="X[88] <= 0.5\ngini = 0.487\nsamples = 4943878\nvalue = [2070461, 2873417]", fillcolor="#c8e4f8"] ;
2 -> 3 ;
4 [label="X[77] <= 0.5\ngini = 0.491\nsamples = 4756330\nvalue = [2050886, 2705444]", fillcolor="#cfe7f9"] ;
3 -> 4 ;
5 [label="X[55] <= 0.5\ngini = 0.495\nsamples = 4365786\nvalue = [1959946, 2405840]", fillcolor="#daedfa"] ;
4 -> 5 ;
6 [label="X[66] <= 0.5\ngini = 0.493\nsamples = 4221456\nvalue = [1866071, 2355385]", fillcolor="#d6ebfa"] ;
5 -> 6 ;
7 [label="X[98] <= 0.5\ngini = 0.492\nsamples = 4130069\nvalue = [1802842, 2327227]", fillcolor="#d2e9f9"] ;
6 -> 7 ;
8 [label="X[43] <= 0.5\ngini = 0.493\nsamples = 4088131\nvalue = [1798963, 2289168]", fillcolor="#d5eaf9"] ;
7 -> 8 ;
9 [label="X[93] <= 0.5\ngini = 0.494\nsamples = 3949245\nvalue = [1763021, 2186224]", fillcolor="#d9ecfa"] ;
8 -> 9 ;
10 [label="X[73] <= 0.5\ngini = 0.495\nsamples = 3803338\nvalue = [1720599, 2082739]", fillcolor="#ddeefa"] ;
9 -> 10 ;
11 [label="X[8] <= 0.5\ngini = 0.495\nsamples = 3742788\nvalue = [1680341, 2062447]", fillcolor="#daedfa"] ;
10 -> 11 ;
12 [label="X[91] <= 0.5\ngini = 0.496\nsamples = 3667739\nvalue = [1660362, 2007377]", fillcolor="#ddeefb"] ;
11 -> 12 ;
13 [label="X[68] <= 0.5\ngini = 0.496\nsamples = 3628817\nvalue = [1652387, 1976430]", fillcolor="#dfeffb"] ;
12 -> 13 ;
14 [label="X[32] <= 0.5\ngini = 0.496\nsamples = 3621636\nvalue = [1645210, 1976426]", fillcolor="#deeffb"] ;
13 -> 14 ;
15 [label="X[103] <= 0.5\ngini = 0.496\nsamples = 3605237\nvalue = [1632447, 1972790]", fillcolor="#ddeefb"] ;
14 -> 15 ;
16 [label="X[100] <= 0.5\ngini = 0.496\nsamples = 3592132\nvalue = [1631027, 1961105]", fillcolor="#deeffb"] ;
15 -> 16 ;
17 [label="X[54] <= 0.5\ngini = 0.496\nsamples = 3576873\nvalue = [1628943, 1947930]", fillcolor="#dfeffb"] ;
16 -> 17 ;
18 [label="X[11] <= 0.5\ngini = 0.496\nsamples = 3541075\nvalue = [1605406, 1935669]", fillcolor="#ddeefb"] ;
17 -> 18 ;
19 [label="X[45] <= 0.5\ngini = 0.495\nsamples = 3524134\nvalue = [1592887, 1931247]", fillcolor="#dceefa"] ;
18 -> 19 ;
20 [label="X[84] <= 0.5\ngini = 0.495\nsamples = 3506340\nvalue = [1579925, 1926415]", fillcolor="#dbedfa"] ;
19 -> 20 ;
21 [label="X[47] <= 0.5\ngini = 0.495\nsamples = 3494360\nvalue = [1578534, 1915826]", fillcolor="#dceefa"] ;
20 -> 21 ;
22 [label="X[19] <= 0.5\ngini = 0.495\nsamples = 3449950\nvalue = [1551132, 1898818]", fillcolor="#dbedfa"] ;
21 -> 22 ;
23 [label="X[15] <= 0.5\ngini = 0.495\nsamples = 3415556\nvalue = [1529170, 1886386]", fillcolor="#daecfa"] ;
22 -> 23 ;
24 [label="X[31] <= 0.5\ngini = 0.494\nsamples = 3349840\nvalue = [1491046, 1858794]", fillcolor="#d8ecfa"] ;
23 -> 24 ;
25 [label="X[69] <= 0.5\ngini = 0.494\nsamples = 3339159\nvalue = [1489784, 1849375]", fillcolor="#d9ecfa"] ;
24 -> 25 ;
26 [label="X[7] <= 0.5\ngini = 0.494\nsamples = 3326320\nvalue = [1487495, 1838825]", fillcolor="#d9ecfa"] ;
25 -> 26 ;
27 [label="X[79] <= 0.5\ngini = 0.499\nsamples = 881830\nvalue = [418259, 463571]", fillcolor="#ecf5fc"] ;
26 -> 27 ;
28 [label="X[63] <= 0.5\ngini = 0.499\nsamples = 874988\nvalue = [416912, 458076]", fillcolor="#edf6fd"] ;
27 -> 28 ;
29 [label="X[64] <= 0.5\ngini = 0.499\nsamples = 835351\nvalue = [402102, 433249]", fillcolor="#f1f8fd"] ;
28 -> 29 ;
30 [label="X[12] <= 0.5\ngini = 0.5\nsamples = 788274\nvalue = [383705, 404569]", fillcolor="#f5fafe"] ;
29 -> 30 ;
31 [label="X[9] <= 0.5\ngini = 0.5\nsamples = 768712\nvalue = [376673, 392039]", fillcolor="#f7fbfe"] ;
30 -> 31 ;
32 [label="X[33] <= 0.5\ngini = 0.5\nsamples = 764243\nvalue = [375632, 388611]", fillcolor="#f8fcfe"] ;
31 -> 32 ;
33 [label="X[94] <= 0.5\ngini = 0.5\nsamples = 759793\nvalue = [374514, 385279]", fillcolor="#f9fcfe"] ;
32 -> 33 ;
34 [label="X[46] <= 0.5\ngini = 0.5\nsamples = 732130\nvalue = [363524, 368606]", fillcolor="#fcfeff"] ;
33 -> 34 ;
35 [label="X[95] <= 0.5\ngini = 0.5\nsamples = 728618\nvalue = [360881, 367737]", fillcolor="#fbfdff"] ;
34 -> 35 ;
36 [label="X[39] <= 0.5\ngini = 0.5\nsamples = 724522\nvalue = [359808, 364714]", fillcolor="#fcfeff"] ;
35 -> 36 ;
37 [label="X[58] <= 0.5\ngini = 0.5\nsamples = 720141\nvalue = [358599, 361542]", fillcolor="#fdfeff"] ;
36 -> 37 ;
38 [label="X[87] <= 0.5\ngini = 0.5\nsamples = 717877\nvalue = [356837, 361040]", fillcolor="#fdfeff"] ;
37 -> 38 ;
39 [label="X[13] <= 0.5\ngini = 0.5\nsamples = 711619\nvalue = [352713, 358906]", fillcolor="#fcfdff"] ;
38 -> 39 ;
40 [label="X[62] <= 0.5\ngini = 0.5\nsamples = 694952\nvalue = [342831, 352121]", fillcolor="#fafcfe"] ;
39 -> 40 ;
41 [label="X[25] <= 0.5\ngini = 0.5\nsamples = 693361\nvalue = [341545, 351816]", fillcolor="#f9fcfe"] ;
40 -> 41 ;
42 [label="X[4] <= 0.5\ngini = 0.5\nsamples = 668605\nvalue = [331218, 337387]", fillcolor="#fbfdff"] ;
41 -> 42 ;
43 [label="X[75] <= 0.5\ngini = 0.5\nsamples = 659239\nvalue = [325487, 333752]", fillcolor="#fafdfe"] ;
42 -> 43 ;
44 [label="X[78] <= 0.5\ngini = 0.5\nsamples = 653476\nvalue = [323486, 329990]", fillcolor="#fbfdfe"] ;
43 -> 44 ;
45 [label="X[89] <= 0.5\ngini = 0.5\nsamples = 651461\nvalue = [322984, 328477]", fillcolor="#fcfdff"] ;
44 -> 45 ;
46 [label="X[72] <= 0.5\ngini = 0.5\nsamples = 650142\nvalue = [321942, 328200]", fillcolor="#fbfdff"] ;
45 -> 46 ;
47 [label="X[70] <= 0.5\ngini = 0.5\nsamples = 647711\nvalue = [321261, 326450]", fillcolor="#fcfdff"] ;
46 -> 47 ;
48 [label="X[90] <= 0.5\ngini = 0.5\nsamples = 646469\nvalue = [320994, 325475]", fillcolor="#fcfeff"] ;
47 -> 48 ;
49 [label="X[80] <= 0.5\ngini = 0.5\nsamples = 644541\nvalue = [320466, 324075]", fillcolor="#fdfeff"] ;
48 -> 49 ;
50 [label="X[41] <= 0.5\ngini = 0.5\nsamples = 630688\nvalue = [314720, 315968]", fillcolor="#feffff"] ;
49 -> 50 ;
51 [label="X[92] <= 0.5\ngini = 0.5\nsamples = 625934\nvalue = [313009, 312925]", fillcolor="#ffffff"] ;
50 -> 51 ;
52 [label="X[81] <= 0.5\ngini = 0.5\nsamples = 598063\nvalue = [300618, 297445]", fillcolor="#fffefd"] ;
51 -> 52 ;
53 [label="X[37] <= 0.5\ngini = 0.5\nsamples = 591357\nvalue = [298024, 293333]", fillcolor="#fffdfc"] ;
52 -> 53 ;
54 [label="X[101] <= 0.5\ngini = 0.5\nsamples = 590193\nvalue = [297133, 293060]", fillcolor="#fffdfc"] ;
53 -> 54 ;
55 [label="X[74] <= 0.5\ngini = 0.5\nsamples = 583751\nvalue = [294586, 289165]", fillcolor="#fffdfb"] ;
54 -> 55 ;
56 [label="X[24] <= 0.5\ngini = 0.5\nsamples = 582586\nvalue = [294286, 288300]", fillcolor="#fefcfb"] ;
55 -> 56 ;
57 [label="X[29] <= 0.5\ngini = 0.5\nsamples = 579743\nvalue = [292404, 287339]", fillcolor="#fffdfc"] ;
56 -> 57 ;
58 [label="X[18] <= 0.5\ngini = 0.5\nsamples = 577341\nvalue = [290781, 286560]", fillcolor="#fffdfc"] ;
57 -> 58 ;
59 [label="X[34] <= 0.5\ngini = 0.5\nsamples = 552788\nvalue = [277115, 275673]", fillcolor="#fffefe"] ;
58 -> 59 ;
60 [label="X[76] <= 0.5\ngini = 0.5\nsamples = 551509\nvalue = [276182, 275327]", fillcolor="#fffffe"] ;
59 -> 60 ;
61 [label="X[67] <= 0.5\ngini = 0.5\nsamples = 544149\nvalue = [273175, 270974]", fillcolor="#fffefd"] ;
60 -> 61 ;
62 [label="X[83] <= 0.5\ngini = 0.5\nsamples = 540005\nvalue = [271554, 268451]", fillcolor="#fffefd"] ;
61 -> 62 ;
63 [label="X[14] <= 0.5\ngini = 0.5\nsamples = 538626\nvalue = [271122, 267504]", fillcolor="#fffdfc"] ;
62 -> 63 ;
64 [label="X[50] <= 0.5\ngini = 0.5\nsamples = 537166\nvalue = [270125, 267041]", fillcolor="#fffefd"] ;
63 -> 64 ;
65 [label="X[56] <= 0.5\ngini = 0.5\nsamples = 536488\nvalue = [269631, 266857]", fillcolor="#fffefd"] ;
64 -> 65 ;
66 [label="X[65] <= 0.5\ngini = 0.5\nsamples = 534197\nvalue = [268203, 265994]", fillcolor="#fffefd"] ;
65 -> 66 ;
67 [label="X[108] <= 0.5\ngini = 0.5\nsamples = 510329\nvalue = [255333, 254996]", fillcolor="#ffffff"] ;
66 -> 67 ;
68 [label="X[38] <= 0.5\ngini = 0.5\nsamples = 275084\nvalue = [135617, 139467]", fillcolor="#fafcfe"] ;
67 -> 68 ;
69 [label="X[10] <= 0.5\ngini = 0.5\nsamples = 272239\nvalue = [133918, 138321]", fillcolor="#f9fcfe"] ;
68 -> 69 ;
70 [label="X[22] <= 0.5\ngini = 0.5\nsamples = 269521\nvalue = [132299, 137222]", fillcolor="#f8fbfe"] ;
69 -> 70 ;
71 [label="X[26] <= 0.5\ngini = 0.5\nsamples = 264496\nvalue = [129446, 135050]", fillcolor="#f7fbfe"] ;
70 -> 71 ;
72 [label="X[49] <= 0.5\ngini = 0.5\nsamples = 259298\nvalue = [127246, 132052]", fillcolor="#f8fbfe"] ;
71 -> 72 ;
73 [label="X[2] <= 0.5\ngini = 0.5\nsamples = 255092\nvalue = [125495, 129597]", fillcolor="#f9fcfe"] ;
72 -> 73 ;
74 [label="X[20] <= 0.5\ngini = 0.5\nsamples = 168146\nvalue = [83855, 84291]", fillcolor="#fefeff"] ;
73 -> 74 ;
75 [label="X[107] <= 0.5\ngini = 0.5\nsamples = 162369\nvalue = [80604, 81765]", fillcolor="#fcfeff"] ;
74 -> 75 ;
76 [label="X[28] <= 0.5\ngini = 0.5\nsamples = 161887\nvalue = [80457, 81430]", fillcolor="#fdfeff"] ;
75 -> 76 ;
77 [label="X[102] <= 0.5\ngini = 0.5\nsamples = 136047\nvalue = [67024, 69023]", fillcolor="#f9fcfe"] ;
76 -> 77 ;
78 [label="X[16] <= 0.5\ngini = 0.5\nsamples = 134307\nvalue = [66322, 67985]", fillcolor="#fafdfe"] ;
77 -> 78 ;
79 [label="X[17] <= 0.5\ngini = 0.5\nsamples = 131577\nvalue = [65139, 66438]", fillcolor="#fbfdfe"] ;
78 -> 79 ;
80 [label="X[106] <= 0.5\ngini = 0.5\nsamples = 89706\nvalue = [44987, 44719]", fillcolor="#fffefe"] ;
79 -> 80 ;
81 [label="X[53] <= 0.5\ngini = 0.5\nsamples = 88160\nvalue = [44331, 43829]", fillcolor="#fffefd"] ;
80 -> 81 ;
82 [label="X[86] <= 0.5\ngini = 0.5\nsamples = 86021\nvalue = [43397, 42624]", fillcolor="#fffdfb"] ;
81 -> 82 ;
83 [label="X[96] <= 0.5\ngini = 0.5\nsamples = 85034\nvalue = [42994, 42040]", fillcolor="#fefcfb"] ;
82 -> 83 ;
84 [label="X[1] <= 0.5\ngini = 0.5\nsamples = 83120\nvalue = [42158, 40962]", fillcolor="#fefbf9"] ;
83 -> 84 ;
85 [label="X[105] <= 0.5\ngini = 0.5\nsamples = 82450\nvalue = [41752, 40698]", fillcolor="#fefcfa"] ;
84 -> 85 ;
86 [label="X[44] <= 0.5\ngini = 0.5\nsamples = 80997\nvalue = [41081, 39916]", fillcolor="#fefbf9"] ;
85 -> 86 ;
87 [label="X[35] <= 0.5\ngini = 0.5\nsamples = 78611\nvalue = [39793, 38818]", fillcolor="#fefcfa"] ;
86 -> 87 ;
88 [label="X[30] <= 0.5\ngini = 0.5\nsamples = 77883\nvalue = [39383, 38500]", fillcolor="#fefcfb"] ;
87 -> 88 ;
89 [label="X[23] <= 0.5\ngini = 0.5\nsamples = 65328\nvalue = [32902, 32426]", fillcolor="#fffdfc"] ;
88 -> 89 ;
90 [label="X[36] <= 0.5\ngini = 0.5\nsamples = 59496\nvalue = [29879, 29617]", fillcolor="#fffefd"] ;
89 -> 90 ;
91 [label="X[57] <= 0.5\ngini = 0.5\nsamples = 58637\nvalue = [29416, 29221]", fillcolor="#fffefe"] ;
90 -> 91 ;
92 [label="X[27] <= 0.5\ngini = 0.5\nsamples = 57338\nvalue = [28801, 28537]", fillcolor="#fffefd"] ;
91 -> 92 ;
93 [label="X[0] <= 0.5\ngini = 0.5\nsamples = 25483\nvalue = [12699, 12784]", fillcolor="#fefeff"] ;
92 -> 93 ;
94 [label="X[5] <= 0.5\ngini = 0.5\nsamples = 25457\nvalue = [12691, 12766]", fillcolor="#fefeff"] ;
93 -> 94 ;
95 [label="X[71] <= 0.5\ngini = 0.498\nsamples = 340\nvalue = [159, 181]", fillcolor="#e7f3fc"] ;
94 -> 95 ;
96 [label="X[52] <= 0.5\ngini = 0.493\nsamples = 204\nvalue = [114, 90]", fillcolor="#fae4d5"] ;
95 -> 96 ;
97 [label="X[48] <= 0.5\ngini = 0.495\nsamples = 200\nvalue = [110, 90]", fillcolor="#fae8db"] ;
96 -> 97 ;
98 [label="X[60] <= 0.5\ngini = 0.499\nsamples = 151\nvalue = [78, 73]", fillcolor="#fdf7f2"] ;
97 -> 98 ;
99 [label="X[85] <= 0.5\ngini = 0.499\nsamples = 149\nvalue = [78, 71]", fillcolor="#fdf4ed"] ;
98 -> 99 ;
100 [label="X[61] <= 0.5\ngini = 0.5\nsamples = 135\nvalue = [69, 66]", fillcolor="#fefaf6"] ;
99 -> 100 ;
101 [label="X[82] <= 0.5\ngini = 0.5\nsamples = 127\nvalue = [64, 63]", fillcolor="#fffdfc"] ;
100 -> 101 ;
102 [label="X[40] <= 0.5\ngini = 0.499\nsamples = 62\nvalue = [32, 30]", fillcolor="#fdf7f3"] ;
101 -> 102 ;
103 [label="gini = 0.5\nsamples = 37\nvalue = [19, 18]", fillcolor="#fef8f5"] ;
102 -> 103 ;
104 [label="gini = 0.499\nsamples = 25\nvalue = [13, 12]", fillcolor="#fdf5f0"] ;
102 -> 104 ;
105 [label="gini = 0.5\nsamples = 65\nvalue = [32, 33]", fillcolor="#f9fcfe"] ;
101 -> 105 ;
106 [label="gini = 0.469\nsamples = 8\nvalue = [5, 3]", fillcolor="#f5cdb0"] ;
100 -> 106 ;
107 [label="gini = 0.459\nsamples = 14\nvalue = [9, 5]", fillcolor="#f3c7a7"] ;
99 -> 107 ;
108 [label="gini = 0.0\nsamples = 2\nvalue = [0, 2]", fillcolor="#399de5"] ;
98 -> 108 ;
109 [label="gini = 0.453\nsamples = 49\nvalue = [32, 17]", fillcolor="#f3c4a2"] ;
97 -> 109 ;
110 [label="gini = 0.0\nsamples = 4\nvalue = [4, 0]", fillcolor="#e58139"] ;
96 -> 110 ;
111 [label="gini = 0.443\nsamples = 136\nvalue = [45, 91]", fillcolor="#9bcdf2"] ;
95 -> 111 ;
112 [label="X[60] <= 0.5\ngini = 0.5\nsamples = 25117\nvalue = [12532, 12585]", fillcolor="#feffff"] ;
94 -> 112 ;
113 [label="X[82] <= 0.5\ngini = 0.5\nsamples = 25031\nvalue = [12493, 12538]", fillcolor="#feffff"] ;
112 -> 113 ;
114 [label="X[61] <= 0.5\ngini = 0.5\nsamples = 20423\nvalue = [10218, 10205]", fillcolor="#ffffff"] ;
113 -> 114 ;
115 [label="X[51] <= 0.5\ngini = 0.5\nsamples = 16238\nvalue = [8151, 8087]", fillcolor="#fffefd"] ;
114 -> 115 ;
116 [label="X[71] <= 0.5\ngini = 0.5\nsamples = 16141\nvalue = [8104, 8037]", fillcolor="#fffefd"] ;
115 -> 116 ;
117 [label="X[52] <= 0.5\ngini = 0.5\nsamples = 13871\nvalue = [6970, 6901]", fillcolor="#fffefd"] ;
116 -> 117 ;
118 [label="X[40] <= 0.5\ngini = 0.5\nsamples = 12604\nvalue = [6337, 6267]", fillcolor="#fffefd"] ;
117 -> 118 ;
119 [label="X[42] <= 0.5\ngini = 0.5\nsamples = 11114\nvalue = [5592, 5522]", fillcolor="#fffdfd"] ;
118 -> 119 ;
120 [label="X[85] <= 0.5\ngini = 0.5\nsamples = 11046\nvalue = [5557, 5489]", fillcolor="#fffdfd"] ;
119 -> 120 ;
121 [label="X[59] <= 0.5\ngini = 0.5\nsamples = 10482\nvalue = [5275, 5207]", fillcolor="#fffdfc"] ;
120 -> 121 ;
122 [label="X[48] <= 0.5\ngini = 0.5\nsamples = 10443\nvalue = [5255, 5188]", fillcolor="#fffdfc"] ;
121 -> 122 ;
123 [label="gini = 0.5\nsamples = 5001\nvalue = [2515, 2486]", fillcolor="#fffefd"] ;
122 -> 123 ;
124 [label="gini = 0.5\nsamples = 5442\nvalue = [2740, 2702]", fillcolor="#fffdfc"] ;
122 -> 124 ;
125 [label="gini = 0.5\nsamples = 39\nvalue = [20, 19]", fillcolor="#fef9f5"] ;
121 -> 125 ;
126 [label="gini = 0.5\nsamples = 564\nvalue = [282, 282]", fillcolor="#ffffff"] ;
120 -> 126 ;
127 [label="gini = 0.5\nsamples = 68\nvalue = [35, 33]", fillcolor="#fef8f4"] ;
119 -> 127 ;
128 [label="gini = 0.5\nsamples = 1490\nvalue = [745, 745]", fillcolor="#ffffff"] ;
118 -> 128 ;
129 [label="gini = 0.5\nsamples = 1267\nvalue = [633, 634]", fillcolor="#ffffff"] ;
117 -> 129 ;
130 [label="gini = 0.5\nsamples = 2270\nvalue = [1134, 1136]", fillcolor="#ffffff"] ;
116 -> 130 ;
131 [label="gini = 0.5\nsamples = 97\nvalue = [47, 50]", fillcolor="#f3f9fd"] ;
115 -> 131 ;
132 [label="gini = 0.5\nsamples = 4185\nvalue = [2067, 2118]", fillcolor="#fafdfe"] ;
114 -> 132 ;
133 [label="gini = 0.5\nsamples = 4608\nvalue = [2275, 2333]", fillcolor="#fafdfe"] ;
113 -> 133 ;
134 [label="gini = 0.496\nsamples = 86\nvalue = [39, 47]", fillcolor="#ddeefb"] ;
112 -> 134 ;
135 [label="X[61] <= 0.5\ngini = 0.426\nsamples = 26\nvalue = [8, 18]", fillcolor="#91c9f1"] ;
93 -> 135 ;
136 [label="X[40] <= 0.5\ngini = 0.397\nsamples = 22\nvalue = [6, 16]", fillcolor="#83c2ef"] ;
135 -> 136 ;
137 [label="X[52] <= 0.5\ngini = 0.375\nsamples = 20\nvalue = [5, 15]", fillcolor="#7bbeee"] ;
136 -> 137 ;
138 [label="X[82] <= 0.5\ngini = 0.375\nsamples = 16\nvalue = [4, 12]", fillcolor="#7bbeee"] ;
137 -> 138 ;
139 [label="X[21] <= 0.5\ngini = 0.375\nsamples = 8\nvalue = [2, 6]", fillcolor="#7bbeee"] ;
138 -> 139 ;
140 [label="gini = 0.375\nsamples = 4\nvalue = [1, 3]", fillcolor="#7bbeee"] ;
139 -> 140 ;
141 [label="gini = 0.375\nsamples = 4\nvalue = [1, 3]", fillcolor="#7bbeee"] ;
139 -> 141 ;
142 [label="gini = 0.375\nsamples = 8\nvalue = [2, 6]", fillcolor="#7bbeee"] ;
138 -> 142 ;
143 [label="gini = 0.375\nsamples = 4\nvalue = [1, 3]", fillcolor="#7bbeee"] ;
137 -> 143 ;
144 [label="gini = 0.5\nsamples = 2\nvalue = [1, 1]", fillcolor="#ffffff"] ;
136 -> 144 ;
145 [label="gini = 0.5\nsamples = 4\nvalue = [2, 2]", fillcolor="#ffffff"] ;
135 -> 145 ;
146 [label="X[0] <= 0.5\ngini = 0.5\nsamples = 31855\nvalue = [16102, 15753]", fillcolor="#fefcfb"] ;
92 -> 146 ;
147 [label="X[3] <= 0.5\ngini = 0.5\nsamples = 31843\nvalue = [16094, 15749]", fillcolor="#fefcfb"] ;
146 -> 147 ;
148 [label="gini = 0.5\nsamples = 31789\nvalue = [16067, 15722]", fillcolor="#fefcfb"] ;
147 -> 148 ;
149 [label="gini = 0.5\nsamples = 54\nvalue = [27, 27]", fillcolor="#ffffff"] ;
147 -> 149 ;
150 [label="gini = 0.444\nsamples = 12\nvalue = [8, 4]", fillcolor="#f2c09c"] ;
146 -> 150 ;
151 [label="X[5] <= 0.5\ngini = 0.499\nsamples = 1299\nvalue = [615, 684]", fillcolor="#ebf5fc"] ;
91 -> 151 ;
152 [label="gini = 0.444\nsamples = 6\nvalue = [2, 4]", fillcolor="#9ccef2"] ;
151 -> 152 ;
153 [label="gini = 0.499\nsamples = 1293\nvalue = [613, 680]", fillcolor="#ebf5fc"] ;
151 -> 153 ;
154 [label="gini = 0.497\nsamples = 859\nvalue = [463, 396]", fillcolor="#fbede2"] ;
90 -> 154 ;
155 [label="X[3] <= 0.5\ngini = 0.499\nsamples = 5832\nvalue = [3023, 2809]", fillcolor="#fdf6f1"] ;
89 -> 155 ;
156 [label="X[5] <= 0.5\ngini = 0.499\nsamples = 5797\nvalue = [3009, 2788]", fillcolor="#fdf6f0"] ;
155 -> 156 ;
157 [label="gini = 0.444\nsamples = 3\nvalue = [2, 1]", fillcolor="#f2c09c"] ;
156 -> 157 ;
158 [label="gini = 0.499\nsamples = 5794\nvalue = [3007, 2787]", fillcolor="#fdf6f1"] ;
156 -> 158 ;
159 [label="gini = 0.48\nsamples = 35\nvalue = [14, 21]", fillcolor="#bddef6"] ;
155 -> 159 ;
160 [label="X[3] <= 0.5\ngini = 0.499\nsamples = 12555\nvalue = [6481, 6074]", fillcolor="#fdf7f3"] ;
88 -> 160 ;
161 [label="gini = 0.499\nsamples = 12529\nvalue = [6465, 6064]", fillcolor="#fdf7f3"] ;
160 -> 161 ;
162 [label="gini = 0.473\nsamples = 26\nvalue = [16, 10]", fillcolor="#f5d0b5"] ;
160 -> 162 ;
163 [label="X[3] <= 0.5\ngini = 0.492\nsamples = 728\nvalue = [410, 318]", fillcolor="#f9e3d3"] ;
87 -> 163 ;
164 [label="gini = 0.492\nsamples = 725\nvalue = [408, 317]", fillcolor="#f9e3d3"] ;
163 -> 164 ;
165 [label="gini = 0.444\nsamples = 3\nvalue = [2, 1]", fillcolor="#f2c09c"] ;
163 -> 165 ;
166 [label="X[5] <= 0.5\ngini = 0.497\nsamples = 2386\nvalue = [1288, 1098]", fillcolor="#fbece2"] ;
86 -> 166 ;
167 [label="gini = 0.472\nsamples = 21\nvalue = [13, 8]", fillcolor="#f5cfb3"] ;
166 -> 167 ;
168 [label="gini = 0.497\nsamples = 2365\nvalue = [1275, 1090]", fillcolor="#fbede2"] ;
166 -> 168 ;
169 [label="X[3] <= 0.5\ngini = 0.497\nsamples = 1453\nvalue = [671, 782]", fillcolor="#e3f1fb"] ;
85 -> 169 ;
170 [label="X[5] <= 0.5\ngini = 0.497\nsamples = 1446\nvalue = [668, 778]", fillcolor="#e3f1fb"] ;
169 -> 170 ;
171 [label="gini = 0.5\nsamples = 2\nvalue = [1, 1]", fillcolor="#ffffff"] ;
170 -> 171 ;
172 [label="gini = 0.497\nsamples = 1444\nvalue = [667, 777]", fillcolor="#e3f1fb"] ;
170 -> 172 ;
173 [label="gini = 0.49\nsamples = 7\nvalue = [3, 4]", fillcolor="#cee6f8"] ;
169 -> 173 ;
174 [label="X[71] <= 0.5\ngini = 0.478\nsamples = 670\nvalue = [406, 264]", fillcolor="#f6d3ba"] ;
84 -> 174 ;
175 [label="X[105] <= 0.5\ngini = 0.475\nsamples = 638\nvalue = [391, 247]", fillcolor="#f5d1b6"] ;
174 -> 175 ;
176 [label="X[44] <= 0.5\ngini = 0.47\nsamples = 592\nvalue = [368, 224]", fillcolor="#f5ceb2"] ;
175 -> 176 ;
177 [label="X[51] <= 0.5\ngini = 0.466\nsamples = 549\nvalue = [346, 203]", fillcolor="#f4cbad"] ;
176 -> 177 ;
178 [label="X[61] <= 0.5\ngini = 0.465\nsamples = 548\nvalue = [346, 202]", fillcolor="#f4cbad"] ;
177 -> 178 ;
179 [label="X[36] <= 0.5\ngini = 0.463\nsamples = 528\nvalue = [336, 192]", fillcolor="#f4c9aa"] ;
178 -> 179 ;
180 [label="X[30] <= 0.5\ngini = 0.464\nsamples = 522\nvalue = [331, 191]", fillcolor="#f4caab"] ;
179 -> 180 ;
181 [label="X[23] <= 0.5\ngini = 0.467\nsamples = 490\nvalue = [308, 182]", fillcolor="#f4cbae"] ;
180 -> 181 ;
182 [label="X[35] <= 0.5\ngini = 0.472\nsamples = 415\nvalue = [257, 158]", fillcolor="#f5ceb3"] ;
181 -> 182 ;
183 [label="X[21] <= 0.5\ngini = 0.47\nsamples = 403\nvalue = [251, 152]", fillcolor="#f5cdb1"] ;
182 -> 183 ;
184 [label="X[52] <= 0.5\ngini = 0.473\nsamples = 342\nvalue = [211, 131]", fillcolor="#f5cfb4"] ;
183 -> 184 ;
185 [label="X[82] <= 0.5\ngini = 0.474\nsamples = 318\nvalue = [195, 123]", fillcolor="#f5d0b6"] ;
184 -> 185 ;
186 [label="X[57] <= 0.5\ngini = 0.476\nsamples = 284\nvalue = [173, 111]", fillcolor="#f6d2b8"] ;
185 -> 186 ;
187 [label="X[85] <= 0.5\ngini = 0.476\nsamples = 277\nvalue = [169, 108]", fillcolor="#f6d2b8"] ;
186 -> 187 ;
188 [label="X[40] <= 0.5\ngini = 0.476\nsamples = 274\nvalue = [167, 107]", fillcolor="#f6d2b8"] ;
187 -> 188 ;
189 [label="X[27] <= 0.5\ngini = 0.475\nsamples = 262\nvalue = [160, 102]", fillcolor="#f6d1b7"] ;
188 -> 189 ;
190 [label="gini = 0.476\nsamples = 69\nvalue = [42, 27]", fillcolor="#f6d2b8"] ;
189 -> 190 ;
191 [label="gini = 0.475\nsamples = 193\nvalue = [118, 75]", fillcolor="#f6d1b7"] ;
189 -> 191 ;
192 [label="gini = 0.486\nsamples = 12\nvalue = [7, 5]", fillcolor="#f8dbc6"] ;
188 -> 192 ;
193 [label="gini = 0.444\nsamples = 3\nvalue = [2, 1]", fillcolor="#f2c09c"] ;
187 -> 193 ;
194 [label="gini = 0.49\nsamples = 7\nvalue = [4, 3]", fillcolor="#f8e0ce"] ;
186 -> 194 ;
195 [label="gini = 0.457\nsamples = 34\nvalue = [22, 12]", fillcolor="#f3c6a5"] ;
185 -> 195 ;
196 [label="gini = 0.444\nsamples = 24\nvalue = [16, 8]", fillcolor="#f2c09c"] ;
184 -> 196 ;
197 [label="gini = 0.451\nsamples = 61\nvalue = [40, 21]", fillcolor="#f3c3a1"] ;
183 -> 197 ;
198 [label="gini = 0.5\nsamples = 12\nvalue = [6, 6]", fillcolor="#ffffff"] ;
182 -> 198 ;
199 [label="gini = 0.435\nsamples = 75\nvalue = [51, 24]", fillcolor="#f1bc96"] ;
181 -> 199 ;
200 [label="gini = 0.404\nsamples = 32\nvalue = [23, 9]", fillcolor="#efb286"] ;
180 -> 200 ;
201 [label="gini = 0.278\nsamples = 6\nvalue = [5, 1]", fillcolor="#ea9a61"] ;
179 -> 201 ;
202 [label="gini = 0.5\nsamples = 20\nvalue = [10, 10]", fillcolor="#ffffff"] ;
178 -> 202 ;
203 [label="gini = 0.0\nsamples = 1\nvalue = [0, 1]", fillcolor="#399de5"] ;
177 -> 203 ;
204 [label="gini = 0.5\nsamples = 43\nvalue = [22, 21]", fillcolor="#fef9f6"] ;
176 -> 204 ;
205 [label="gini = 0.5\nsamples = 46\nvalue = [23, 23]", fillcolor="#ffffff"] ;
175 -> 205 ;
206 [label="gini = 0.498\nsamples = 32\nvalue = [15, 17]", fillcolor="#e8f3fc"] ;
174 -> 206 ;
207 [label="X[3] <= 0.5\ngini = 0.492\nsamples = 1914\nvalue = [836, 1078]", fillcolor="#d3e9f9"] ;
83 -> 207 ;
208 [label="X[5] <= 0.5\ngini = 0.494\nsamples = 1820\nvalue = [807, 1013]", fillcolor="#d7ebfa"] ;
207 -> 208 ;
209 [label="X[1] <= 0.5\ngini = 0.5\nsamples = 59\nvalue = [29, 30]", fillcolor="#f8fcfe"] ;
208 -> 209 ;
210 [label="gini = 0.49\nsamples = 7\nvalue = [4, 3]", fillcolor="#f8e0ce"] ;
209 -> 210 ;
211 [label="gini = 0.499\nsamples = 52\nvalue = [25, 27]", fillcolor="#f0f8fd"] ;
209 -> 211 ;
212 [label="gini = 0.493\nsamples = 1761\nvalue = [778, 983]", fillcolor="#d6ebfa"] ;
208 -> 212 ;
213 [label="gini = 0.427\nsamples = 94\nvalue = [29, 65]", fillcolor="#91c9f1"] ;
207 -> 213 ;
214 [label="X[1] <= 0.5\ngini = 0.483\nsamples = 987\nvalue = [403, 584]", fillcolor="#c2e1f7"] ;
82 -> 214 ;
215 [label="X[5] <= 0.5\ngini = 0.48\nsamples = 915\nvalue = [367, 548]", fillcolor="#bedff6"] ;
214 -> 215 ;
216 [label="gini = 0.0\nsamples = 1\nvalue = [0, 1]", fillcolor="#399de5"] ;
215 -> 216 ;
217 [label="gini = 0.481\nsamples = 914\nvalue = [367, 547]", fillcolor="#bedff6"] ;
215 -> 217 ;
218 [label="gini = 0.5\nsamples = 72\nvalue = [36, 36]", fillcolor="#ffffff"] ;
214 -> 218 ;
219 [label="X[1] <= 0.5\ngini = 0.492\nsamples = 2139\nvalue = [934, 1205]", fillcolor="#d2e9f9"] ;
81 -> 219 ;
220 [label="X[0] <= 0.5\ngini = 0.492\nsamples = 2118\nvalue = [927, 1191]", fillcolor="#d3e9f9"] ;
219 -> 220 ;
221 [label="X[3] <= 0.5\ngini = 0.492\nsamples = 2113\nvalue = [924, 1189]", fillcolor="#d3e9f9"] ;
220 -> 221 ;
222 [label="gini = 0.492\nsamples = 2099\nvalue = [918, 1181]", fillcolor="#d3e9f9"] ;
221 -> 222 ;
223 [label="gini = 0.49\nsamples = 14\nvalue = [6, 8]", fillcolor="#cee6f8"] ;
221 -> 223 ;
224 [label="gini = 0.48\nsamples = 5\nvalue = [3, 2]", fillcolor="#f6d5bd"] ;
220 -> 224 ;
225 [label="gini = 0.444\nsamples = 21\nvalue = [7, 14]", fillcolor="#9ccef2"] ;
219 -> 225 ;
226 [label="X[3] <= 0.5\ngini = 0.489\nsamples = 1546\nvalue = [656, 890]", fillcolor="#cbe5f8"] ;
80 -> 226 ;
227 [label="X[5] <= 0.5\ngini = 0.49\nsamples = 1513\nvalue = [647, 866]", fillcolor="#cde6f8"] ;
226 -> 227 ;
228 [label="gini = 0.5\nsamples = 36\nvalue = [18, 18]", fillcolor="#ffffff"] ;
227 -> 228 ;
229 [label="gini = 0.489\nsamples = 1477\nvalue = [629, 848]", fillcolor="#cce6f8"] ;
227 -> 229 ;
230 [label="gini = 0.397\nsamples = 33\nvalue = [9, 24]", fillcolor="#83c2ef"] ;
226 -> 230 ;
231 [label="X[5] <= 0.5\ngini = 0.499\nsamples = 41871\nvalue = [20152, 21719]", fillcolor="#f1f8fd"] ;
79 -> 231 ;
232 [label="X[3] <= 0.5\ngini = 0.474\nsamples = 251\nvalue = [154, 97]", fillcolor="#f5d0b6"] ;
231 -> 232 ;
233 [label="X[0] <= 0.5\ngini = 0.458\nsamples = 180\nvalue = [116, 64]", fillcolor="#f3c7a6"] ;
232 -> 233 ;
234 [label="gini = 0.466\nsamples = 162\nvalue = [102, 60]", fillcolor="#f4cbad"] ;
233 -> 234 ;
235 [label="gini = 0.346\nsamples = 18\nvalue = [14, 4]", fillcolor="#eca572"] ;
233 -> 235 ;
236 [label="gini = 0.498\nsamples = 71\nvalue = [38, 33]", fillcolor="#fceee5"] ;
232 -> 236 ;
237 [label="gini = 0.499\nsamples = 41620\nvalue = [19998, 21622]", fillcolor="#f0f8fd"] ;
231 -> 237 ;
238 [label="X[1] <= 0.5\ngini = 0.491\nsamples = 2730\nvalue = [1183, 1547]", fillcolor="#d0e8f9"] ;
78 -> 238 ;
239 [label="X[0] <= 0.5\ngini = 0.491\nsamples = 2696\nvalue = [1163, 1533]", fillcolor="#cfe7f9"] ;
238 -> 239 ;
240 [label="X[3] <= 0.5\ngini = 0.491\nsamples = 2692\nvalue = [1163, 1529]", fillcolor="#d0e8f9"] ;
239 -> 240 ;
241 [label="gini = 0.49\nsamples = 2614\nvalue = [1125, 1489]", fillcolor="#cfe7f9"] ;
240 -> 241 ;
242 [label="gini = 0.5\nsamples = 78\nvalue = [38, 40]", fillcolor="#f5fafe"] ;
240 -> 242 ;
243 [label="gini = 0.0\nsamples = 4\nvalue = [0, 4]", fillcolor="#399de5"] ;
239 -> 243 ;
244 [label="gini = 0.484\nsamples = 34\nvalue = [20, 14]", fillcolor="#f7d9c4"] ;
238 -> 244 ;
245 [label="X[0] <= 0.5\ngini = 0.481\nsamples = 1740\nvalue = [702, 1038]", fillcolor="#bfdff7"] ;
77 -> 245 ;
246 [label="X[3] <= 0.5\ngini = 0.482\nsamples = 1738\nvalue = [702, 1036]", fillcolor="#bfdff7"] ;
245 -> 246 ;
247 [label="X[5] <= 0.5\ngini = 0.482\nsamples = 1703\nvalue = [691, 1012]", fillcolor="#c0e0f7"] ;
246 -> 247 ;
248 [label="gini = 0.494\nsamples = 36\nvalue = [16, 20]", fillcolor="#d7ebfa"] ;
247 -> 248 ;
249 [label="gini = 0.482\nsamples = 1667\nvalue = [675, 992]", fillcolor="#c0e0f7"] ;
247 -> 249 ;
250 [label="gini = 0.431\nsamples = 35\nvalue = [11, 24]", fillcolor="#94caf1"] ;
246 -> 250 ;
251 [label="gini = 0.0\nsamples = 2\nvalue = [0, 2]", fillcolor="#399de5"] ;
245 -> 251 ;
252 [label="X[1] <= 0.5\ngini = 0.499\nsamples = 25840\nvalue = [13433, 12407]", fillcolor="#fdf5f0"] ;
76 -> 252 ;
253 [label="X[0] <= 0.5\ngini = 0.499\nsamples = 25525\nvalue = [13226, 12299]", fillcolor="#fdf6f1"] ;
252 -> 253 ;
254 [label="X[5] <= 0.5\ngini = 0.499\nsamples = 25511\nvalue = [13220, 12291]", fillcolor="#fdf6f1"] ;
253 -> 254 ;
255 [label="gini = 0.5\nsamples = 300\nvalue = [153, 147]", fillcolor="#fefaf7"] ;
254 -> 255 ;
256 [label="gini = 0.499\nsamples = 25211\nvalue = [13067, 12144]", fillcolor="#fdf6f1"] ;
254 -> 256 ;
257 [label="gini = 0.49\nsamples = 14\nvalue = [6, 8]", fillcolor="#cee6f8"] ;
253 -> 257 ;
258 [label="gini = 0.451\nsamples = 315\nvalue = [207, 108]", fillcolor="#f3c3a0"] ;
252 -> 258 ;
259 [label="X[3] <= 0.5\ngini = 0.424\nsamples = 482\nvalue = [147, 335]", fillcolor="#90c8f0"] ;
75 -> 259 ;
260 [label="X[1] <= 0.5\ngini = 0.423\nsamples = 481\nvalue = [146, 335]", fillcolor="#8fc8f0"] ;
259 -> 260 ;
261 [label="X[5] <= 0.5\ngini = 0.422\nsamples = 480\nvalue = [145, 335]", fillcolor="#8fc7f0"] ;
260 -> 261 ;
262 [label="gini = 0.0\nsamples = 2\nvalue = [0, 2]", fillcolor="#399de5"] ;
261 -> 262 ;
263 [label="gini = 0.423\nsamples = 478\nvalue = [145, 333]", fillcolor="#8fc8f0"] ;
261 -> 263 ;
264 [label="gini = 0.0\nsamples = 1\nvalue = [1, 0]", fillcolor="#e58139"] ;
260 -> 264 ;
265 [label="gini = 0.0\nsamples = 1\nvalue = [1, 0]", fillcolor="#e58139"] ;
259 -> 265 ;
266 [label="X[3] <= 0.5\ngini = 0.492\nsamples = 5777\nvalue = [3251, 2526]", fillcolor="#f9e3d3"] ;
74 -> 266 ;
267 [label="X[5] <= 0.5\ngini = 0.491\nsamples = 5728\nvalue = [3238, 2490]", fillcolor="#f9e2d1"] ;
266 -> 267 ;
268 [label="X[0] <= 0.5\ngini = 0.433\nsamples = 79\nvalue = [54, 25]", fillcolor="#f1bb95"] ;
267 -> 268 ;
269 [label="gini = 0.435\nsamples = 75\nvalue = [51, 24]", fillcolor="#f1bc96"] ;
268 -> 269 ;
270 [label="gini = 0.375\nsamples = 4\nvalue = [3, 1]", fillcolor="#eeab7b"] ;
268 -> 270 ;
271 [label="gini = 0.492\nsamples = 5649\nvalue = [3184, 2465]", fillcolor="#f9e3d2"] ;
267 -> 271 ;
272 [label="gini = 0.39\nsamples = 49\nvalue = [13, 36]", fillcolor="#80c0ee"] ;
266 -> 272 ;
273 [label="X[27] <= 0.5\ngini = 0.499\nsamples = 86946\nvalue = [41640, 45306]", fillcolor="#eff7fd"] ;
73 -> 273 ;
274 [label="X[20] <= 0.5\ngini = 0.5\nsamples = 75821\nvalue = [37255, 38566]", fillcolor="#f8fcfe"] ;
273 -> 274 ;
275 [label="X[82] <= 0.5\ngini = 0.5\nsamples = 71455\nvalue = [35509, 35946]", fillcolor="#fdfeff"] ;
274 -> 275 ;
276 [label="X[61] <= 0.5\ngini = 0.5\nsamples = 70124\nvalue = [35055, 35069]", fillcolor="#ffffff"] ;
275 -> 276 ;
277 [label="X[17] <= 0.5\ngini = 0.5\nsamples = 68411\nvalue = [34028, 34383]", fillcolor="#fdfeff"] ;
276 -> 277 ;
278 [label="X[21] <= 0.5\ngini = 0.5\nsamples = 53400\nvalue = [26092, 27308]", fillcolor="#f6fbfe"] ;
277 -> 278 ;
279 [label="X[23] <= 0.5\ngini = 0.499\nsamples = 49447\nvalue = [23929, 25518]", fillcolor="#f3f9fd"] ;
278 -> 279 ;
280 [label="X[106] <= 0.5\ngini = 0.499\nsamples = 45979\nvalue = [22056, 23923]", fillcolor="#f0f7fd"] ;
279 -> 280 ;
281 [label="X[96] <= 0.5\ngini = 0.499\nsamples = 45183\nvalue = [21765, 23418]", fillcolor="#f1f8fd"] ;
280 -> 281 ;
282 [label="X[86] <= 0.5\ngini = 0.499\nsamples = 44283\nvalue = [21428, 22855]", fillcolor="#f3f9fd"] ;
281 -> 282 ;
283 [label="X[36] <= 0.5\ngini = 0.5\nsamples = 44010\nvalue = [21349, 22661]", fillcolor="#f4f9fd"] ;
282 -> 283 ;
284 [label="X[40] <= 0.5\ngini = 0.499\nsamples = 43465\nvalue = [21014, 22451]", fillcolor="#f2f9fd"] ;
283 -> 284 ;
285 [label="X[35] <= 0.5\ngini = 0.499\nsamples = 42575\nvalue = [20498, 22077]", fillcolor="#f1f8fd"] ;
284 -> 285 ;
286 [label="X[44] <= 0.5\ngini = 0.499\nsamples = 41677\nvalue = [19984, 21693]", fillcolor="#eff7fd"] ;
285 -> 286 ;
287 [label="X[48] <= 0.5\ngini = 0.499\nsamples = 37754\nvalue = [17942, 19812]", fillcolor="#ecf6fd"] ;
286 -> 287 ;
288 [label="X[52] <= 0.5\ngini = 0.498\nsamples = 33446\nvalue = [15715, 17731]", fillcolor="#e8f4fc"] ;
287 -> 288 ;
289 [label="X[16] <= 0.5\ngini = 0.498\nsamples = 32406\nvalue = [15162, 17244]", fillcolor="#e7f3fc"] ;
288 -> 289 ;
290 [label="X[85] <= 0.5\ngini = 0.498\nsamples = 29006\nvalue = [13671, 15335]", fillcolor="#eaf4fc"] ;
289 -> 290 ;
291 [label="X[107] <= 0.5\ngini = 0.499\nsamples = 27317\nvalue = [12944, 14373]", fillcolor="#ebf5fc"] ;
290 -> 291 ;
292 [label="X[102] <= 0.5\ngini = 0.499\nsamples = 27197\nvalue = [12906, 14291]", fillcolor="#ecf6fc"] ;
291 -> 292 ;
293 [label="X[30] <= 0.5\ngini = 0.499\nsamples = 26300\nvalue = [12524, 13776]", fillcolor="#edf6fd"] ;
292 -> 293 ;
294 [label="X[57] <= 0.5\ngini = 0.499\nsamples = 24828\nvalue = [11773, 13055]", fillcolor="#ecf5fc"] ;
293 -> 294 ;
295 [label="X[28] <= 0.5\ngini = 0.498\nsamples = 22982\nvalue = [10846, 12136]", fillcolor="#eaf5fc"] ;
294 -> 295 ;
296 [label="X[60] <= 0.5\ngini = 0.497\nsamples = 5048\nvalue = [2319, 2729]", fillcolor="#e1f0fb"] ;
295 -> 296 ;
297 [label="X[51] <= 0.5\ngini = 0.497\nsamples = 5018\nvalue = [2309, 2709]", fillcolor="#e2f1fb"] ;
296 -> 297 ;
298 [label="X[53] <= 0.5\ngini = 0.497\nsamples = 4944\nvalue = [2280, 2664]", fillcolor="#e2f1fb"] ;
297 -> 298 ;
299 [label="X[59] <= 0.5\ngini = 0.495\nsamples = 954\nvalue = [429, 525]", fillcolor="#dbedfa"] ;
298 -> 299 ;
300 [label="X[42] <= 0.5\ngini = 0.495\nsamples = 945\nvalue = [426, 519]", fillcolor="#dcedfa"] ;
299 -> 300 ;
301 [label="X[71] <= 0.5\ngini = 0.495\nsamples = 942\nvalue = [425, 517]", fillcolor="#dceefa"] ;
300 -> 301 ;
302 [label="gini = 0.495\nsamples = 539\nvalue = [243, 296]", fillcolor="#dcedfa"] ;
301 -> 302 ;
303 [label="gini = 0.495\nsamples = 403\nvalue = [182, 221]", fillcolor="#dceefa"] ;
301 -> 303 ;
304 [label="gini = 0.444\nsamples = 3\nvalue = [1, 2]", fillcolor="#9ccef2"] ;
300 -> 304 ;
305 [label="gini = 0.444\nsamples = 9\nvalue = [3, 6]", fillcolor="#9ccef2"] ;
299 -> 305 ;
306 [label="gini = 0.497\nsamples = 3990\nvalue = [1851, 2139]", fillcolor="#e4f2fb"] ;
298 -> 306 ;
307 [label="gini = 0.477\nsamples = 74\nvalue = [29, 45]", fillcolor="#b9dcf6"] ;
297 -> 307 ;
308 [label="gini = 0.444\nsamples = 30\nvalue = [10, 20]", fillcolor="#9ccef2"] ;
296 -> 308 ;
309 [label="gini = 0.499\nsamples = 17934\nvalue = [8527, 9407]", fillcolor="#ecf6fd"] ;
295 -> 309 ;
310 [label="gini = 0.5\nsamples = 1846\nvalue = [927, 919]", fillcolor="#fffefd"] ;
294 -> 310 ;
311 [label="gini = 0.5\nsamples = 1472\nvalue = [751, 721]", fillcolor="#fefaf7"] ;
293 -> 311 ;
312 [label="gini = 0.489\nsamples = 897\nvalue = [382, 515]", fillcolor="#cce6f8"] ;
292 -> 312 ;
313 [label="gini = 0.433\nsamples = 120\nvalue = [38, 82]", fillcolor="#95caf1"] ;
291 -> 313 ;
314 [label="gini = 0.49\nsamples = 1689\nvalue = [727, 962]", fillcolor="#cfe7f9"] ;
290 -> 314 ;
315 [label="gini = 0.492\nsamples = 3400\nvalue = [1491, 1909]", fillcolor="#d4eaf9"] ;
289 -> 315 ;
316 [label="gini = 0.498\nsamples = 1040\nvalue = [553, 487]", fillcolor="#fcf0e7"] ;
288 -> 316 ;
317 [label="gini = 0.499\nsamples = 4308\nvalue = [2227, 2081]", fillcolor="#fdf7f2"] ;
287 -> 317 ;
318 [label="gini = 0.499\nsamples = 3923\nvalue = [2042, 1881]", fillcolor="#fdf5ef"] ;
286 -> 318 ;
319 [label="gini = 0.49\nsamples = 898\nvalue = [514, 384]", fillcolor="#f8dfcd"] ;
285 -> 319 ;
320 [label="gini = 0.487\nsamples = 890\nvalue = [516, 374]", fillcolor="#f8dcc9"] ;
284 -> 320 ;
321 [label="gini = 0.474\nsamples = 545\nvalue = [335, 210]", fillcolor="#f5d0b5"] ;
283 -> 321 ;
322 [label="gini = 0.411\nsamples = 273\nvalue = [79, 194]", fillcolor="#8ac5f0"] ;
282 -> 322 ;
323 [label="gini = 0.468\nsamples = 900\nvalue = [337, 563]", fillcolor="#b0d8f5"] ;
281 -> 323 ;
324 [label="gini = 0.464\nsamples = 796\nvalue = [291, 505]", fillcolor="#abd5f4"] ;
280 -> 324 ;
325 [label="gini = 0.497\nsamples = 3468\nvalue = [1873, 1595]", fillcolor="#fbece2"] ;
279 -> 325 ;
326 [label="gini = 0.496\nsamples = 3953\nvalue = [2163, 1790]", fillcolor="#fbe9dd"] ;
278 -> 326 ;
327 [label="gini = 0.498\nsamples = 15011\nvalue = [7936, 7075]", fillcolor="#fcf1ea"] ;
277 -> 327 ;
328 [label="gini = 0.48\nsamples = 1713\nvalue = [1027, 686]", fillcolor="#f6d5bd"] ;
276 -> 328 ;
329 [label="gini = 0.449\nsamples = 1331\nvalue = [454, 877]", fillcolor="#9fd0f2"] ;
275 -> 329 ;
330 [label="gini = 0.48\nsamples = 4366\nvalue = [1746, 2620]", fillcolor="#bddef6"] ;
274 -> 330 ;
331 [label="gini = 0.478\nsamples = 11125\nvalue = [4385, 6740]", fillcolor="#baddf6"] ;
273 -> 331 ;
332 [label="X[5] <= 0.5\ngini = 0.486\nsamples = 4206\nvalue = [1751, 2455]", fillcolor="#c6e3f8"] ;
72 -> 332 ;
333 [label="X[1] <= 0.5\ngini = 0.493\nsamples = 1514\nvalue = [666, 848]", fillcolor="#d5eaf9"] ;
332 -> 333 ;
334 [label="X[0] <= 0.5\ngini = 0.492\nsamples = 1486\nvalue = [649, 837]", fillcolor="#d3e9f9"] ;
333 -> 334 ;
335 [label="X[2] <= 0.5\ngini = 0.492\nsamples = 1484\nvalue = [647, 837]", fillcolor="#d2e9f9"] ;
334 -> 335 ;
336 [label="gini = 0.444\nsamples = 9\nvalue = [3, 6]", fillcolor="#9ccef2"] ;
335 -> 336 ;
337 [label="gini = 0.492\nsamples = 1475\nvalue = [644, 831]", fillcolor="#d2e9f9"] ;
335 -> 337 ;
338 [label="gini = 0.0\nsamples = 2\nvalue = [2, 0]", fillcolor="#e58139"] ;
334 -> 338 ;
339 [label="gini = 0.477\nsamples = 28\nvalue = [17, 11]", fillcolor="#f6d3b9"] ;
333 -> 339 ;
340 [label="gini = 0.481\nsamples = 2692\nvalue = [1085, 1607]", fillcolor="#bfdff7"] ;
332 -> 340 ;
341 [label="X[5] <= 0.5\ngini = 0.488\nsamples = 5198\nvalue = [2200, 2998]", fillcolor="#cae5f8"] ;
71 -> 341 ;
342 [label="X[0] <= 0.5\ngini = 0.494\nsamples = 1911\nvalue = [853, 1058]", fillcolor="#d9ecfa"] ;
341 -> 342 ;
343 [label="X[1] <= 0.5\ngini = 0.494\nsamples = 1906\nvalue = [850, 1056]", fillcolor="#d8ecfa"] ;
342 -> 343 ;
344 [label="X[2] <= 0.5\ngini = 0.494\nsamples = 1846\nvalue = [824, 1022]", fillcolor="#d9ecfa"] ;
343 -> 344 ;
345 [label="gini = 0.497\nsamples = 13\nvalue = [6, 7]", fillcolor="#e3f1fb"] ;
344 -> 345 ;
346 [label="gini = 0.494\nsamples = 1833\nvalue = [818, 1015]", fillcolor="#d9ecfa"] ;
344 -> 346 ;
347 [label="gini = 0.491\nsamples = 60\nvalue = [26, 34]", fillcolor="#d0e8f9"] ;
343 -> 347 ;
348 [label="gini = 0.48\nsamples = 5\nvalue = [3, 2]", fillcolor="#f6d5bd"] ;
342 -> 348 ;
349 [label="gini = 0.484\nsamples = 3287\nvalue = [1347, 1940]", fillcolor="#c2e1f7"] ;
341 -> 349 ;
350 [label="X[5] <= 0.5\ngini = 0.491\nsamples = 5025\nvalue = [2853, 2172]", fillcolor="#f9e1d0"] ;
70 -> 350 ;
351 [label="X[3] <= 0.5\ngini = 0.476\nsamples = 2015\nvalue = [1226, 789]", fillcolor="#f6d2b8"] ;
350 -> 351 ;
352 [label="X[1] <= 0.5\ngini = 0.476\nsamples = 1999\nvalue = [1220, 779]", fillcolor="#f6d1b7"] ;
351 -> 352 ;
353 [label="gini = 0.476\nsamples = 1972\nvalue = [1200, 772]", fillcolor="#f6d2b8"] ;
352 -> 353 ;
354 [label="gini = 0.384\nsamples = 27\nvalue = [20, 7]", fillcolor="#eead7e"] ;
352 -> 354 ;
355 [label="gini = 0.469\nsamples = 16\nvalue = [6, 10]", fillcolor="#b0d8f5"] ;
351 -> 355 ;
356 [label="gini = 0.497\nsamples = 3010\nvalue = [1627, 1383]", fillcolor="#fbece1"] ;
350 -> 356 ;
357 [label="X[2] <= 0.5\ngini = 0.482\nsamples = 2718\nvalue = [1619, 1099]", fillcolor="#f7d7bf"] ;
69 -> 357 ;
358 [label="X[3] <= 0.5\ngini = 0.494\nsamples = 1605\nvalue = [887, 718]", fillcolor="#fae7d9"] ;
357 -> 358 ;
359 [label="X[0] <= 0.5\ngini = 0.494\nsamples = 1600\nvalue = [886, 714]", fillcolor="#fae7d9"] ;
358 -> 359 ;
360 [label="X[1] <= 0.5\ngini = 0.494\nsamples = 1599\nvalue = [885, 714]", fillcolor="#fae7d9"] ;
359 -> 360 ;
361 [label="gini = 0.494\nsamples = 1588\nvalue = [880, 708]", fillcolor="#fae6d8"] ;
360 -> 361 ;
362 [label="gini = 0.496\nsamples = 11\nvalue = [5, 6]", fillcolor="#deeffb"] ;
360 -> 362 ;
363 [label="gini = 0.0\nsamples = 1\nvalue = [1, 0]", fillcolor="#e58139"] ;
359 -> 363 ;
364 [label="gini = 0.32\nsamples = 5\nvalue = [1, 4]", fillcolor="#6ab6ec"] ;
358 -> 364 ;
365 [label="gini = 0.45\nsamples = 1113\nvalue = [732, 381]", fillcolor="#f3c3a0"] ;
357 -> 365 ;
366 [label="X[5] <= 0.5\ngini = 0.481\nsamples = 2845\nvalue = [1699, 1146]", fillcolor="#f7d6bf"] ;
68 -> 366 ;
367 [label="X[1] <= 0.5\ngini = 0.493\nsamples = 1002\nvalue = [561, 441]", fillcolor="#f9e4d5"] ;
366 -> 367 ;
368 [label="X[2] <= 0.5\ngini = 0.494\nsamples = 987\nvalue = [549, 438]", fillcolor="#fae6d7"] ;
367 -> 368 ;
369 [label="X[3] <= 0.5\ngini = 0.482\nsamples = 32\nvalue = [13, 19]", fillcolor="#c0e0f7"] ;
368 -> 369 ;
370 [label="gini = 0.444\nsamples = 3\nvalue = [1, 2]", fillcolor="#9ccef2"] ;
369 -> 370 ;
371 [label="gini = 0.485\nsamples = 29\nvalue = [12, 17]", fillcolor="#c5e2f7"] ;
369 -> 371 ;
372 [label="gini = 0.492\nsamples = 955\nvalue = [536, 419]", fillcolor="#f9e3d4"] ;
368 -> 372 ;
373 [label="gini = 0.32\nsamples = 15\nvalue = [12, 3]", fillcolor="#eca06a"] ;
367 -> 373 ;
374 [label="gini = 0.472\nsamples = 1843\nvalue = [1138, 705]", fillcolor="#f5cfb4"] ;
366 -> 374 ;
375 [label="X[3] <= 0.5\ngini = 0.5\nsamples = 235245\nvalue = [119716, 115529]", fillcolor="#fefbf8"] ;
67 -> 375 ;
376 [label="X[1] <= 0.5\ngini = 0.5\nsamples = 232223\nvalue = [118396, 113827]", fillcolor="#fefaf7"] ;
375 -> 376 ;
377 [label="X[5] <= 0.5\ngini = 0.5\nsamples = 228825\nvalue = [116483, 112342]", fillcolor="#fefbf8"] ;
376 -> 377 ;
378 [label="X[2] <= 0.5\ngini = 0.5\nsamples = 84733\nvalue = [43433, 41300]", fillcolor="#fef9f5"] ;
377 -> 378 ;
379 [label="gini = 0.499\nsamples = 120\nvalue = [62, 58]", fillcolor="#fdf7f2"] ;
378 -> 379 ;
380 [label="gini = 0.5\nsamples = 84613\nvalue = [43371, 41242]", fillcolor="#fef9f5"] ;
378 -> 380 ;
381 [label="gini = 0.5\nsamples = 144092\nvalue = [73050, 71042]", fillcolor="#fefcfa"] ;
377 -> 381 ;
382 [label="gini = 0.492\nsamples = 3398\nvalue = [1913, 1485]", fillcolor="#f9e3d3"] ;
376 -> 382 ;
383 [label="gini = 0.492\nsamples = 3022\nvalue = [1320, 1702]", fillcolor="#d3e9f9"] ;
375 -> 383 ;
384 [label="X[2] <= 0.5\ngini = 0.497\nsamples = 23868\nvalue = [12870, 10998]", fillcolor="#fbede2"] ;
66 -> 384 ;
385 [label="X[3] <= 0.5\ngini = 0.496\nsamples = 12409\nvalue = [6738, 5671]", fillcolor="#fbebe0"] ;
384 -> 385 ;
386 [label="X[0] <= 0.5\ngini = 0.496\nsamples = 12282\nvalue = [6663, 5619]", fillcolor="#fbebe0"] ;
385 -> 386 ;
387 [label="X[1] <= 0.5\ngini = 0.496\nsamples = 12274\nvalue = [6659, 5615]", fillcolor="#fbebe0"] ;
386 -> 387 ;
388 [label="gini = 0.496\nsamples = 12191\nvalue = [6613, 5578]", fillcolor="#fbebe0"] ;
387 -> 388 ;
389 [label="gini = 0.494\nsamples = 83\nvalue = [46, 37]", fillcolor="#fae6d8"] ;
387 -> 389 ;
390 [label="gini = 0.5\nsamples = 8\nvalue = [4, 4]", fillcolor="#ffffff"] ;
386 -> 390 ;
391 [label="gini = 0.484\nsamples = 127\nvalue = [75, 52]", fillcolor="#f7d8c2"] ;
385 -> 391 ;
392 [label="gini = 0.498\nsamples = 11459\nvalue = [6132, 5327]", fillcolor="#fceee5"] ;
384 -> 392 ;
393 [label="X[0] <= 0.5\ngini = 0.47\nsamples = 2291\nvalue = [1428, 863]", fillcolor="#f5cdb1"] ;
65 -> 393 ;
394 [label="X[5] <= 0.5\ngini = 0.469\nsamples = 2289\nvalue = [1428, 861]", fillcolor="#f5cdb0"] ;
393 -> 394 ;
395 [label="X[2] <= 0.5\ngini = 0.464\nsamples = 947\nvalue = [601, 346]", fillcolor="#f4caab"] ;
394 -> 395 ;
396 [label="X[3] <= 0.5\ngini = 0.401\nsamples = 18\nvalue = [13, 5]", fillcolor="#efb185"] ;
395 -> 396 ;
397 [label="gini = 0.42\nsamples = 10\nvalue = [7, 3]", fillcolor="#f0b78e"] ;
396 -> 397 ;
398 [label="gini = 0.375\nsamples = 8\nvalue = [6, 2]", fillcolor="#eeab7b"] ;
396 -> 398 ;
399 [label="gini = 0.465\nsamples = 929\nvalue = [588, 341]", fillcolor="#f4caac"] ;
395 -> 399 ;
400 [label="gini = 0.473\nsamples = 1342\nvalue = [827, 515]", fillcolor="#f5cfb4"] ;
394 -> 400 ;
401 [label="gini = 0.0\nsamples = 2\nvalue = [0, 2]", fillcolor="#399de5"] ;
393 -> 401 ;
402 [label="X[2] <= 0.5\ngini = 0.395\nsamples = 678\nvalue = [494, 184]", fillcolor="#efb083"] ;
64 -> 402 ;
403 [label="X[5] <= 0.5\ngini = 0.444\nsamples = 375\nvalue = [250, 125]", fillcolor="#f2c09c"] ;
402 -> 403 ;
404 [label="X[1] <= 0.5\ngini = 0.32\nsamples = 10\nvalue = [2, 8]", fillcolor="#6ab6ec"] ;
403 -> 404 ;
405 [label="gini = 0.0\nsamples = 4\nvalue = [0, 4]", fillcolor="#399de5"] ;
404 -> 405 ;
406 [label="gini = 0.444\nsamples = 6\nvalue = [2, 4]", fillcolor="#9ccef2"] ;
404 -> 406 ;
407 [label="gini = 0.436\nsamples = 365\nvalue = [248, 117]", fillcolor="#f1bc96"] ;
403 -> 407 ;
408 [label="gini = 0.314\nsamples = 303\nvalue = [244, 59]", fillcolor="#eb9f69"] ;
402 -> 408 ;
409 [label="X[5] <= 0.5\ngini = 0.433\nsamples = 1460\nvalue = [997, 463]", fillcolor="#f1bc95"] ;
63 -> 409 ;
410 [label="X[0] <= 0.5\ngini = 0.397\nsamples = 505\nvalue = [367, 138]", fillcolor="#efb083"] ;
409 -> 410 ;
411 [label="X[2] <= 0.5\ngini = 0.396\nsamples = 504\nvalue = [367, 137]", fillcolor="#efb083"] ;
410 -> 411 ;
412 [label="X[1] <= 0.5\ngini = 0.231\nsamples = 15\nvalue = [13, 2]", fillcolor="#e99457"] ;
411 -> 412 ;
413 [label="gini = 0.0\nsamples = 3\nvalue = [3, 0]", fillcolor="#e58139"] ;
412 -> 413 ;
414 [label="gini = 0.278\nsamples = 12\nvalue = [10, 2]", fillcolor="#ea9a61"] ;
412 -> 414 ;
415 [label="gini = 0.4\nsamples = 489\nvalue = [354, 135]", fillcolor="#efb185"] ;
411 -> 415 ;
416 [label="gini = 0.0\nsamples = 1\nvalue = [0, 1]", fillcolor="#399de5"] ;
410 -> 416 ;
417 [label="gini = 0.449\nsamples = 955\nvalue = [630, 325]", fillcolor="#f2c29f"] ;
409 -> 417 ;
418 [label="X[5] <= 0.5\ngini = 0.43\nsamples = 1379\nvalue = [432, 947]", fillcolor="#93caf1"] ;
62 -> 418 ;
419 [label="X[3] <= 0.5\ngini = 0.467\nsamples = 446\nvalue = [166, 280]", fillcolor="#aed7f4"] ;
418 -> 419 ;
420 [label="X[0] <= 0.5\ngini = 0.463\nsamples = 435\nvalue = [158, 277]", fillcolor="#aad5f4"] ;
419 -> 420 ;
421 [label="X[1] <= 0.5\ngini = 0.463\nsamples = 434\nvalue = [158, 276]", fillcolor="#aad5f4"] ;
420 -> 421 ;
422 [label="gini = 0.464\nsamples = 421\nvalue = [154, 267]", fillcolor="#abd6f4"] ;
421 -> 422 ;
423 [label="gini = 0.426\nsamples = 13\nvalue = [4, 9]", fillcolor="#91c9f1"] ;
421 -> 423 ;
424 [label="gini = 0.0\nsamples = 1\nvalue = [0, 1]", fillcolor="#399de5"] ;
420 -> 424 ;
425 [label="gini = 0.397\nsamples = 11\nvalue = [8, 3]", fillcolor="#efb083"] ;
419 -> 425 ;
426 [label="gini = 0.408\nsamples = 933\nvalue = [266, 667]", fillcolor="#88c4ef"] ;
418 -> 426 ;
427 [label="X[1] <= 0.5\ngini = 0.476\nsamples = 4144\nvalue = [1621, 2523]", fillcolor="#b8dcf6"] ;
61 -> 427 ;
428 [label="X[3] <= 0.5\ngini = 0.476\nsamples = 4109\nvalue = [1602, 2507]", fillcolor="#b8dcf6"] ;
427 -> 428 ;
429 [label="X[0] <= 0.5\ngini = 0.476\nsamples = 4086\nvalue = [1596, 2490]", fillcolor="#b8dcf6"] ;
428 -> 429 ;
430 [label="X[5] <= 0.5\ngini = 0.476\nsamples = 4084\nvalue = [1596, 2488]", fillcolor="#b8dcf6"] ;
429 -> 430 ;
431 [label="gini = 0.473\nsamples = 2107\nvalue = [808, 1299]", fillcolor="#b4daf5"] ;
430 -> 431 ;
432 [label="gini = 0.479\nsamples = 1977\nvalue = [788, 1189]", fillcolor="#bcdef6"] ;
430 -> 432 ;
433 [label="gini = 0.0\nsamples = 2\nvalue = [0, 2]", fillcolor="#399de5"] ;
429 -> 433 ;
434 [label="gini = 0.386\nsamples = 23\nvalue = [6, 17]", fillcolor="#7fc0ee"] ;
428 -> 434 ;
435 [label="gini = 0.496\nsamples = 35\nvalue = [19, 16]", fillcolor="#fbebe0"] ;
427 -> 435 ;
436 [label="X[5] <= 0.5\ngini = 0.483\nsamples = 7360\nvalue = [3007, 4353]", fillcolor="#c2e1f7"] ;
60 -> 436 ;
437 [label="X[3] <= 0.5\ngini = 0.485\nsamples = 5775\nvalue = [2387, 3388]", fillcolor="#c4e2f7"] ;
436 -> 437 ;
438 [label="X[2] <= 0.5\ngini = 0.485\nsamples = 5653\nvalue = [2333, 3320]", fillcolor="#c4e2f7"] ;
437 -> 438 ;
439 [label="gini = 0.48\nsamples = 15\nvalue = [6, 9]", fillcolor="#bddef6"] ;
438 -> 439 ;
440 [label="gini = 0.485\nsamples = 5638\nvalue = [2327, 3311]", fillcolor="#c4e2f7"] ;
438 -> 440 ;
441 [label="gini = 0.493\nsamples = 122\nvalue = [54, 68]", fillcolor="#d6ebfa"] ;
437 -> 441 ;
442 [label="gini = 0.476\nsamples = 1585\nvalue = [620, 965]", fillcolor="#b8dcf6"] ;
436 -> 442 ;
443 [label="X[2] <= 0.5\ngini = 0.395\nsamples = 1279\nvalue = [933, 346]", fillcolor="#efb082"] ;
59 -> 443 ;
444 [label="X[0] <= 0.5\ngini = 0.44\nsamples = 581\nvalue = [391, 190]", fillcolor="#f2be99"] ;
443 -> 444 ;
445 [label="X[1] <= 0.5\ngini = 0.439\nsamples = 580\nvalue = [391, 189]", fillcolor="#f2be99"] ;
444 -> 445 ;
446 [label="X[3] <= 0.5\ngini = 0.438\nsamples = 577\nvalue = [390, 187]", fillcolor="#f1bd98"] ;
445 -> 446 ;
447 [label="gini = 0.439\nsamples = 576\nvalue = [389, 187]", fillcolor="#f1be98"] ;
446 -> 447 ;
448 [label="gini = 0.0\nsamples = 1\nvalue = [1, 0]", fillcolor="#e58139"] ;
446 -> 448 ;
449 [label="gini = 0.444\nsamples = 3\nvalue = [1, 2]", fillcolor="#9ccef2"] ;
445 -> 449 ;
450 [label="gini = 0.0\nsamples = 1\nvalue = [0, 1]", fillcolor="#399de5"] ;
444 -> 450 ;
451 [label="gini = 0.347\nsamples = 698\nvalue = [542, 156]", fillcolor="#eca572"] ;
443 -> 451 ;
452 [label="X[2] <= 0.5\ngini = 0.494\nsamples = 24553\nvalue = [13666, 10887]", fillcolor="#fae5d7"] ;
58 -> 452 ;
453 [label="X[3] <= 0.5\ngini = 0.491\nsamples = 16382\nvalue = [9299, 7083]", fillcolor="#f9e1d0"] ;
452 -> 453 ;
454 [label="X[0] <= 0.5\ngini = 0.491\nsamples = 16343\nvalue = [9274, 7069]", fillcolor="#f9e1d0"] ;
453 -> 454 ;
455 [label="X[5] <= 0.5\ngini = 0.491\nsamples = 16331\nvalue = [9268, 7063]", fillcolor="#f9e1d0"] ;
454 -> 455 ;
456 [label="gini = 0.49\nsamples = 181\nvalue = [103, 78]", fillcolor="#f9e0cf"] ;
455 -> 456 ;
457 [label="gini = 0.491\nsamples = 16150\nvalue = [9165, 6985]", fillcolor="#f9e1d0"] ;
455 -> 457 ;
458 [label="gini = 0.5\nsamples = 12\nvalue = [6, 6]", fillcolor="#ffffff"] ;
454 -> 458 ;
459 [label="gini = 0.46\nsamples = 39\nvalue = [25, 14]", fillcolor="#f4c8a8"] ;
453 -> 459 ;
460 [label="gini = 0.498\nsamples = 8171\nvalue = [4367, 3804]", fillcolor="#fcefe5"] ;
452 -> 460 ;
461 [label="X[0] <= 0.5\ngini = 0.438\nsamples = 2402\nvalue = [1623, 779]", fillcolor="#f1bd98"] ;
57 -> 461 ;
462 [label="X[3] <= 0.5\ngini = 0.438\nsamples = 2400\nvalue = [1621, 779]", fillcolor="#f1be98"] ;
461 -> 462 ;
463 [label="X[1] <= 0.5\ngini = 0.438\nsamples = 2394\nvalue = [1618, 776]", fillcolor="#f1bd98"] ;
462 -> 463 ;
464 [label="X[2] <= 0.5\ngini = 0.439\nsamples = 2384\nvalue = [1610, 774]", fillcolor="#f1be98"] ;
463 -> 464 ;
465 [label="gini = 0.439\nsamples = 1800\nvalue = [1215, 585]", fillcolor="#f2be98"] ;
464 -> 465 ;
466 [label="gini = 0.438\nsamples = 584\nvalue = [395, 189]", fillcolor="#f1bd98"] ;
464 -> 466 ;
467 [label="gini = 0.32\nsamples = 10\nvalue = [8, 2]", fillcolor="#eca06a"] ;
463 -> 467 ;
468 [label="gini = 0.5\nsamples = 6\nvalue = [3, 3]", fillcolor="#ffffff"] ;
462 -> 468 ;
469 [label="gini = 0.0\nsamples = 2\nvalue = [2, 0]", fillcolor="#e58139"] ;
461 -> 469 ;
470 [label="X[2] <= 0.5\ngini = 0.448\nsamples = 2843\nvalue = [1882, 961]", fillcolor="#f2c19e"] ;
56 -> 470 ;
471 [label="X[3] <= 0.5\ngini = 0.445\nsamples = 1788\nvalue = [1190, 598]", fillcolor="#f2c09c"] ;
470 -> 471 ;
472 [label="X[1] <= 0.5\ngini = 0.445\nsamples = 1781\nvalue = [1186, 595]", fillcolor="#f2c09c"] ;
471 -> 472 ;
473 [label="gini = 0.445\nsamples = 1764\nvalue = [1174, 590]", fillcolor="#f2c09d"] ;
472 -> 473 ;
474 [label="gini = 0.415\nsamples = 17\nvalue = [12, 5]", fillcolor="#f0b58b"] ;
472 -> 474 ;
475 [label="gini = 0.49\nsamples = 7\nvalue = [4, 3]", fillcolor="#f8e0ce"] ;
471 -> 475 ;
476 [label="gini = 0.451\nsamples = 1055\nvalue = [692, 363]", fillcolor="#f3c3a1"] ;
470 -> 476 ;
477 [label="X[2] <= 0.5\ngini = 0.382\nsamples = 1165\nvalue = [300, 865]", fillcolor="#7ebfee"] ;
55 -> 477 ;
478 [label="X[1] <= 0.5\ngini = 0.419\nsamples = 709\nvalue = [212, 497]", fillcolor="#8dc7f0"] ;
477 -> 478 ;
479 [label="X[5] <= 0.5\ngini = 0.415\nsamples = 700\nvalue = [206, 494]", fillcolor="#8cc6f0"] ;
478 -> 479 ;
480 [label="gini = 0.444\nsamples = 9\nvalue = [3, 6]", fillcolor="#9ccef2"] ;
479 -> 480 ;
481 [label="gini = 0.415\nsamples = 691\nvalue = [203, 488]", fillcolor="#8bc6f0"] ;
479 -> 481 ;
482 [label="gini = 0.444\nsamples = 9\nvalue = [6, 3]", fillcolor="#f2c09c"] ;
478 -> 482 ;
483 [label="gini = 0.311\nsamples = 456\nvalue = [88, 368]", fillcolor="#68b4eb"] ;
477 -> 483 ;
484 [label="X[3] <= 0.5\ngini = 0.478\nsamples = 6442\nvalue = [2547, 3895]", fillcolor="#baddf6"] ;
54 -> 484 ;
485 [label="X[1] <= 0.5\ngini = 0.48\nsamples = 6265\nvalue = [2506, 3759]", fillcolor="#bddef6"] ;
484 -> 485 ;
486 [label="X[2] <= 0.5\ngini = 0.481\nsamples = 6167\nvalue = [2477, 3690]", fillcolor="#bedff6"] ;
485 -> 486 ;
487 [label="X[0] <= 0.5\ngini = 0.482\nsamples = 4635\nvalue = [1872, 2763]", fillcolor="#bfdff7"] ;
486 -> 487 ;
488 [label="gini = 0.482\nsamples = 4625\nvalue = [1868, 2757]", fillcolor="#bfdff7"] ;
487 -> 488 ;
489 [label="gini = 0.48\nsamples = 10\nvalue = [4, 6]", fillcolor="#bddef6"] ;
487 -> 489 ;
490 [label="gini = 0.478\nsamples = 1532\nvalue = [605, 927]", fillcolor="#baddf6"] ;
486 -> 490 ;
491 [label="gini = 0.417\nsamples = 98\nvalue = [29, 69]", fillcolor="#8cc6f0"] ;
485 -> 491 ;
492 [label="gini = 0.356\nsamples = 177\nvalue = [41, 136]", fillcolor="#75bbed"] ;
484 -> 492 ;
493 [label="X[5] <= 0.5\ngini = 0.359\nsamples = 1164\nvalue = [891, 273]", fillcolor="#eda876"] ;
53 -> 493 ;
494 [label="X[1] <= 0.5\ngini = 0.33\nsamples = 595\nvalue = [471, 124]", fillcolor="#eca26d"] ;
493 -> 494 ;
495 [label="X[3] <= 0.5\ngini = 0.334\nsamples = 586\nvalue = [462, 124]", fillcolor="#eca36e"] ;
494 -> 495 ;
496 [label="gini = 0.334\nsamples = 581\nvalue = [458, 123]", fillcolor="#eca36e"] ;
495 -> 496 ;
497 [label="gini = 0.32\nsamples = 5\nvalue = [4, 1]", fillcolor="#eca06a"] ;
495 -> 497 ;
498 [label="gini = 0.0\nsamples = 9\nvalue = [9, 0]", fillcolor="#e58139"] ;
494 -> 498 ;
499 [label="gini = 0.387\nsamples = 569\nvalue = [420, 149]", fillcolor="#eeae7f"] ;
493 -> 499 ;
500 [label="X[3] <= 0.5\ngini = 0.474\nsamples = 6706\nvalue = [2594, 4112]", fillcolor="#b6dbf5"] ;
52 -> 500 ;
501 [label="X[2] <= 0.5\ngini = 0.474\nsamples = 6658\nvalue = [2571, 4087]", fillcolor="#b6dbf5"] ;
500 -> 501 ;
502 [label="X[5] <= 0.5\ngini = 0.478\nsamples = 2353\nvalue = [930, 1423]", fillcolor="#baddf6"] ;
501 -> 502 ;
503 [label="gini = 0.49\nsamples = 21\nvalue = [9, 12]", fillcolor="#cee6f8"] ;
502 -> 503 ;
504 [label="gini = 0.478\nsamples = 2332\nvalue = [921, 1411]", fillcolor="#baddf6"] ;
502 -> 504 ;
505 [label="gini = 0.472\nsamples = 4305\nvalue = [1641, 2664]", fillcolor="#b3d9f5"] ;
501 -> 505 ;
506 [label="gini = 0.499\nsamples = 48\nvalue = [23, 25]", fillcolor="#eff7fd"] ;
500 -> 506 ;
507 [label="X[2] <= 0.5\ngini = 0.494\nsamples = 27871\nvalue = [12391, 15480]", fillcolor="#d7ebfa"] ;
51 -> 507 ;
508 [label="X[1] <= 0.5\ngini = 0.498\nsamples = 15175\nvalue = [7131, 8044]", fillcolor="#e9f4fc"] ;
507 -> 508 ;
509 [label="X[5] <= 0.5\ngini = 0.498\nsamples = 14997\nvalue = [7013, 7984]", fillcolor="#e7f3fc"] ;
508 -> 509 ;
510 [label="X[0] <= 0.5\ngini = 0.5\nsamples = 685\nvalue = [338, 347]", fillcolor="#fafcfe"] ;
509 -> 510 ;
511 [label="gini = 0.5\nsamples = 679\nvalue = [334, 345]", fillcolor="#f9fcfe"] ;
510 -> 511 ;
512 [label="gini = 0.444\nsamples = 6\nvalue = [4, 2]", fillcolor="#f2c09c"] ;
510 -> 512 ;
513 [label="gini = 0.498\nsamples = 14312\nvalue = [6675, 7637]", fillcolor="#e6f3fc"] ;
509 -> 513 ;
514 [label="gini = 0.447\nsamples = 178\nvalue = [118, 60]", fillcolor="#f2c19e"] ;
508 -> 514 ;
515 [label="gini = 0.485\nsamples = 12696\nvalue = [5260, 7436]", fillcolor="#c5e2f7"] ;
507 -> 515 ;
516 [label="X[2] <= 0.5\ngini = 0.461\nsamples = 4754\nvalue = [1711, 3043]", fillcolor="#a8d4f4"] ;
50 -> 516 ;
517 [label="X[1] <= 0.5\ngini = 0.452\nsamples = 3354\nvalue = [1158, 2196]", fillcolor="#a1d1f3"] ;
516 -> 517 ;
518 [label="X[5] <= 0.5\ngini = 0.452\nsamples = 3342\nvalue = [1155, 2187]", fillcolor="#a2d1f3"] ;
517 -> 518 ;
519 [label="gini = 0.432\nsamples = 19\nvalue = [6, 13]", fillcolor="#94caf1"] ;
518 -> 519 ;
520 [label="gini = 0.452\nsamples = 3323\nvalue = [1149, 2174]", fillcolor="#a2d1f3"] ;
518 -> 520 ;
521 [label="gini = 0.375\nsamples = 12\nvalue = [3, 9]", fillcolor="#7bbeee"] ;
517 -> 521 ;
522 [label="gini = 0.478\nsamples = 1400\nvalue = [553, 847]", fillcolor="#baddf6"] ;
516 -> 522 ;
523 [label="X[1] <= 0.5\ngini = 0.485\nsamples = 13853\nvalue = [5746, 8107]", fillcolor="#c5e2f7"] ;
49 -> 523 ;
524 [label="X[0] <= 0.5\ngini = 0.485\nsamples = 13744\nvalue = [5680, 8064]", fillcolor="#c4e2f7"] ;
523 -> 524 ;
525 [label="X[5] <= 0.5\ngini = 0.485\nsamples = 13742\nvalue = [5678, 8064]", fillcolor="#c4e2f7"] ;
524 -> 525 ;
526 [label="X[2] <= 0.5\ngini = 0.486\nsamples = 7248\nvalue = [3022, 4226]", fillcolor="#c7e3f8"] ;
525 -> 526 ;
527 [label="gini = 0.494\nsamples = 180\nvalue = [80, 100]", fillcolor="#d7ebfa"] ;
526 -> 527 ;
528 [label="gini = 0.486\nsamples = 7068\nvalue = [2942, 4126]", fillcolor="#c6e3f8"] ;
526 -> 528 ;
529 [label="gini = 0.483\nsamples = 6494\nvalue = [2656, 3838]", fillcolor="#c2e1f7"] ;
525 -> 529 ;
530 [label="gini = 0.0\nsamples = 2\nvalue = [2, 0]", fillcolor="#e58139"] ;
524 -> 530 ;
531 [label="gini = 0.478\nsamples = 109\nvalue = [66, 43]", fillcolor="#f6d3ba"] ;
523 -> 531 ;
532 [label="X[1] <= 0.5\ngini = 0.398\nsamples = 1928\nvalue = [528, 1400]", fillcolor="#84c2ef"] ;
48 -> 532 ;
533 [label="X[5] <= 0.5\ngini = 0.396\nsamples = 1906\nvalue = [518, 1388]", fillcolor="#83c2ef"] ;
532 -> 533 ;
534 [label="X[3] <= 0.5\ngini = 0.366\nsamples = 436\nvalue = [105, 331]", fillcolor="#78bced"] ;
533 -> 534 ;
535 [label="gini = 0.367\nsamples = 421\nvalue = [102, 319]", fillcolor="#78bced"] ;
534 -> 535 ;
536 [label="gini = 0.32\nsamples = 15\nvalue = [3, 12]", fillcolor="#6ab6ec"] ;
534 -> 536 ;
537 [label="gini = 0.404\nsamples = 1470\nvalue = [413, 1057]", fillcolor="#86c3ef"] ;
533 -> 537 ;
538 [label="gini = 0.496\nsamples = 22\nvalue = [10, 12]", fillcolor="#deeffb"] ;
532 -> 538 ;
539 [label="X[5] <= 0.5\ngini = 0.338\nsamples = 1242\nvalue = [267, 975]", fillcolor="#6fb8ec"] ;
47 -> 539 ;
540 [label="X[0] <= 0.5\ngini = 0.284\nsamples = 649\nvalue = [111, 538]", fillcolor="#62b1ea"] ;
539 -> 540 ;
541 [label="X[2] <= 0.5\ngini = 0.284\nsamples = 648\nvalue = [111, 537]", fillcolor="#62b1ea"] ;
540 -> 541 ;
542 [label="gini = 0.245\nsamples = 7\nvalue = [1, 6]", fillcolor="#5aade9"] ;
541 -> 542 ;
543 [label="gini = 0.284\nsamples = 641\nvalue = [110, 531]", fillcolor="#62b1ea"] ;
541 -> 543 ;
544 [label="gini = 0.0\nsamples = 1\nvalue = [0, 1]", fillcolor="#399de5"] ;
540 -> 544 ;
545 [label="gini = 0.388\nsamples = 593\nvalue = [156, 437]", fillcolor="#80c0ee"] ;
539 -> 545 ;
546 [label="X[0] <= 0.5\ngini = 0.403\nsamples = 2431\nvalue = [681, 1750]", fillcolor="#86c3ef"] ;
46 -> 546 ;
547 [label="X[2] <= 0.5\ngini = 0.403\nsamples = 2430\nvalue = [680, 1750]", fillcolor="#86c3ef"] ;
546 -> 547 ;
548 [label="X[3] <= 0.5\ngini = 0.408\nsamples = 1952\nvalue = [557, 1395]", fillcolor="#88c4ef"] ;
547 -> 548 ;
549 [label="X[1] <= 0.5\ngini = 0.408\nsamples = 1931\nvalue = [552, 1379]", fillcolor="#88c4ef"] ;
548 -> 549 ;
550 [label="gini = 0.408\nsamples = 1909\nvalue = [545, 1364]", fillcolor="#88c4ef"] ;
549 -> 550 ;
551 [label="gini = 0.434\nsamples = 22\nvalue = [7, 15]", fillcolor="#95cbf1"] ;
549 -> 551 ;
552 [label="gini = 0.363\nsamples = 21\nvalue = [5, 16]", fillcolor="#77bced"] ;
548 -> 552 ;
553 [label="gini = 0.382\nsamples = 478\nvalue = [123, 355]", fillcolor="#7ebfee"] ;
547 -> 553 ;
554 [label="gini = 0.0\nsamples = 1\nvalue = [1, 0]", fillcolor="#e58139"] ;
546 -> 554 ;
555 [label="X[5] <= 0.5\ngini = 0.332\nsamples = 1319\nvalue = [1042, 277]", fillcolor="#eca26e"] ;
45 -> 555 ;
556 [label="X[1] <= 0.5\ngini = 0.388\nsamples = 353\nvalue = [260, 93]", fillcolor="#eeae80"] ;
555 -> 556 ;
557 [label="X[2] <= 0.5\ngini = 0.376\nsamples = 319\nvalue = [239, 80]", fillcolor="#eeab7b"] ;
556 -> 557 ;
558 [label="gini = 0.0\nsamples = 3\nvalue = [3, 0]", fillcolor="#e58139"] ;
557 -> 558 ;
559 [label="gini = 0.378\nsamples = 316\nvalue = [236, 80]", fillcolor="#eeac7c"] ;
557 -> 559 ;
560 [label="gini = 0.472\nsamples = 34\nvalue = [21, 13]", fillcolor="#f5cfb4"] ;
556 -> 560 ;
561 [label="gini = 0.308\nsamples = 966\nvalue = [782, 184]", fillcolor="#eb9f68"] ;
555 -> 561 ;
562 [label="X[3] <= 0.5\ngini = 0.374\nsamples = 2015\nvalue = [502, 1513]", fillcolor="#7bbeee"] ;
44 -> 562 ;
563 [label="X[5] <= 0.5\ngini = 0.375\nsamples = 2004\nvalue = [502, 1502]", fillcolor="#7bbeee"] ;
562 -> 563 ;
564 [label="X[0] <= 0.5\ngini = 0.363\nsamples = 943\nvalue = [225, 718]", fillcolor="#77bced"] ;
563 -> 564 ;
565 [label="X[2] <= 0.5\ngini = 0.364\nsamples = 942\nvalue = [225, 717]", fillcolor="#77bced"] ;
564 -> 565 ;
566 [label="gini = 0.375\nsamples = 8\nvalue = [2, 6]", fillcolor="#7bbeee"] ;
565 -> 566 ;
567 [label="gini = 0.364\nsamples = 934\nvalue = [223, 711]", fillcolor="#77bced"] ;
565 -> 567 ;
568 [label="gini = 0.0\nsamples = 1\nvalue = [0, 1]", fillcolor="#399de5"] ;
564 -> 568 ;
569 [label="gini = 0.386\nsamples = 1061\nvalue = [277, 784]", fillcolor="#7fc0ee"] ;
563 -> 569 ;
570 [label="gini = 0.0\nsamples = 11\nvalue = [0, 11]", fillcolor="#399de5"] ;
562 -> 570 ;
571 [label="X[5] <= 0.5\ngini = 0.453\nsamples = 5763\nvalue = [2001, 3762]", fillcolor="#a2d1f3"] ;
43 -> 571 ;
572 [label="X[1] <= 0.5\ngini = 0.448\nsamples = 4215\nvalue = [1428, 2787]", fillcolor="#9ecff2"] ;
571 -> 572 ;
573 [label="X[0] <= 0.5\ngini = 0.448\nsamples = 4204\nvalue = [1423, 2781]", fillcolor="#9ecff2"] ;
572 -> 573 ;
574 [label="X[2] <= 0.5\ngini = 0.448\nsamples = 4203\nvalue = [1423, 2780]", fillcolor="#9ecff2"] ;
573 -> 574 ;
575 [label="gini = 0.439\nsamples = 166\nvalue = [54, 112]", fillcolor="#98ccf2"] ;
574 -> 575 ;
576 [label="gini = 0.448\nsamples = 4037\nvalue = [1369, 2668]", fillcolor="#9fcff2"] ;
574 -> 576 ;
577 [label="gini = 0.0\nsamples = 1\nvalue = [0, 1]", fillcolor="#399de5"] ;
573 -> 577 ;
578 [label="gini = 0.496\nsamples = 11\nvalue = [5, 6]", fillcolor="#deeffb"] ;
572 -> 578 ;
579 [label="gini = 0.466\nsamples = 1548\nvalue = [573, 975]", fillcolor="#add7f4"] ;
571 -> 579 ;
580 [label="X[108] <= 0.5\ngini = 0.475\nsamples = 9366\nvalue = [5731, 3635]", fillcolor="#f5d1b7"] ;
42 -> 580 ;
581 [label="X[72] <= 0.5\ngini = 0.496\nsamples = 3095\nvalue = [1687, 1408]", fillcolor="#fbeade"] ;
580 -> 581 ;
582 [label="X[17] <= 0.5\ngini = 0.495\nsamples = 3065\nvalue = [1683, 1382]", fillcolor="#fae8dc"] ;
581 -> 582 ;
583 [label="X[24] <= 0.5\ngini = 0.497\nsamples = 2831\nvalue = [1523, 1308]", fillcolor="#fbede3"] ;
582 -> 583 ;
584 [label="X[29] <= 0.5\ngini = 0.498\nsamples = 2812\nvalue = [1504, 1308]", fillcolor="#fcefe5"] ;
583 -> 584 ;
585 [label="X[101] <= 0.5\ngini = 0.498\nsamples = 2788\nvalue = [1483, 1305]", fillcolor="#fcf0e7"] ;
584 -> 585 ;
586 [label="X[65] <= 0.5\ngini = 0.497\nsamples = 2660\nvalue = [1433, 1227]", fillcolor="#fbede3"] ;
585 -> 586 ;
587 [label="X[23] <= 0.5\ngini = 0.498\nsamples = 2509\nvalue = [1335, 1174]", fillcolor="#fcf0e7"] ;
586 -> 587 ;
588 [label="X[78] <= 0.5\ngini = 0.499\nsamples = 2400\nvalue = [1263, 1137]", fillcolor="#fcf2eb"] ;
587 -> 588 ;
589 [label="X[75] <= 0.5\ngini = 0.498\nsamples = 2390\nvalue = [1262, 1128]", fillcolor="#fcf2ea"] ;
588 -> 589 ;
590 [label="X[70] <= 0.5\ngini = 0.498\nsamples = 2341\nvalue = [1245, 1096]", fillcolor="#fcf0e7"] ;
589 -> 590 ;
591 [label="X[71] <= 0.5\ngini = 0.498\nsamples = 2332\nvalue = [1244, 1088]", fillcolor="#fcefe6"] ;
590 -> 591 ;
592 [label="X[22] <= 0.5\ngini = 0.497\nsamples = 2315\nvalue = [1240, 1075]", fillcolor="#fceee5"] ;
591 -> 592 ;
593 [label="X[18] <= 0.5\ngini = 0.498\nsamples = 2267\nvalue = [1206, 1061]", fillcolor="#fcf0e7"] ;
592 -> 593 ;
594 [label="X[96] <= 0.5\ngini = 0.499\nsamples = 2110\nvalue = [1108, 1002]", fillcolor="#fdf3ec"] ;
593 -> 594 ;
595 [label="X[34] <= 0.5\ngini = 0.498\nsamples = 2039\nvalue = [1080, 959]", fillcolor="#fcf1e9"] ;
594 -> 595 ;
596 [label="X[86] <= 0.5\ngini = 0.498\nsamples = 2034\nvalue = [1075, 959]", fillcolor="#fcf1ea"] ;
595 -> 596 ;
597 [label="X[80] <= 0.5\ngini = 0.498\nsamples = 2019\nvalue = [1071, 948]", fillcolor="#fcf1e8"] ;
596 -> 597 ;
598 [label="X[57] <= 0.5\ngini = 0.497\nsamples = 1921\nvalue = [1029, 892]", fillcolor="#fceee5"] ;
597 -> 598 ;
599 [label="X[41] <= 0.5\ngini = 0.497\nsamples = 1899\nvalue = [1022, 877]", fillcolor="#fbede3"] ;
598 -> 599 ;
600 [label="X[106] <= 0.5\ngini = 0.497\nsamples = 1868\nvalue = [1011, 857]", fillcolor="#fbece1"] ;
599 -> 600 ;
601 [label="X[76] <= 0.5\ngini = 0.496\nsamples = 1824\nvalue = [994, 830]", fillcolor="#fbeade"] ;
600 -> 601 ;
602 [label="X[92] <= 0.5\ngini = 0.495\nsamples = 1751\nvalue = [963, 788]", fillcolor="#fae8db"] ;
601 -> 602 ;
603 [label="X[90] <= 0.5\ngini = 0.493\nsamples = 1505\nvalue = [843, 662]", fillcolor="#f9e4d4"] ;
602 -> 603 ;
604 [label="X[102] <= 0.5\ngini = 0.492\nsamples = 1493\nvalue = [840, 653]", fillcolor="#f9e3d3"] ;
603 -> 604 ;
605 [label="X[105] <= 0.5\ngini = 0.491\nsamples = 1457\nvalue = [826, 631]", fillcolor="#f9e1d0"] ;
604 -> 605 ;
606 [label="X[83] <= 0.5\ngini = 0.49\nsamples = 1427\nvalue = [814, 613]", fillcolor="#f9e0ce"] ;
605 -> 606 ;
607 [label="X[37] <= 0.5\ngini = 0.489\nsamples = 1412\nvalue = [809, 603]", fillcolor="#f8dfcd"] ;
606 -> 607 ;
608 [label="X[56] <= 0.5\ngini = 0.49\nsamples = 1408\nvalue = [805, 603]", fillcolor="#f8dfcd"] ;
607 -> 608 ;
609 [label="X[89] <= 0.5\ngini = 0.49\nsamples = 1391\nvalue = [792, 599]", fillcolor="#f9e0cf"] ;
608 -> 609 ;
610 [label="X[53] <= 0.5\ngini = 0.491\nsamples = 1384\nvalue = [786, 598]", fillcolor="#f9e1d0"] ;
609 -> 610 ;
611 [label="X[49] <= 0.5\ngini = 0.49\nsamples = 1351\nvalue = [771, 580]", fillcolor="#f9e0ce"] ;
610 -> 611 ;
612 [label="X[10] <= 0.5\ngini = 0.489\nsamples = 1330\nvalue = [762, 568]", fillcolor="#f8dfcd"] ;
611 -> 612 ;
613 [label="X[40] <= 0.5\ngini = 0.49\nsamples = 1318\nvalue = [753, 565]", fillcolor="#f9e0ce"] ;
612 -> 613 ;
614 [label="X[107] <= 0.5\ngini = 0.491\nsamples = 1292\nvalue = [735, 557]", fillcolor="#f9e0cf"] ;
613 -> 614 ;
615 [label="X[48] <= 0.5\ngini = 0.49\nsamples = 1291\nvalue = [735, 556]", fillcolor="#f9e0cf"] ;
614 -> 615 ;
616 [label="X[60] <= 0.5\ngini = 0.489\nsamples = 1201\nvalue = [689, 512]", fillcolor="#f8dfcc"] ;
615 -> 616 ;
617 [label="X[67] <= 0.5\ngini = 0.489\nsamples = 1200\nvalue = [689, 511]", fillcolor="#f8decc"] ;
616 -> 617 ;
618 [label="X[50] <= 0.5\ngini = 0.488\nsamples = 1175\nvalue = [677, 498]", fillcolor="#f8decb"] ;
617 -> 618 ;
619 [label="X[85] <= 0.5\ngini = 0.489\nsamples = 1162\nvalue = [668, 494]", fillcolor="#f8decb"] ;
618 -> 619 ;
620 [label="X[14] <= 0.5\ngini = 0.488\nsamples = 1149\nvalue = [662, 487]", fillcolor="#f8decb"] ;
619 -> 620 ;
621 [label="X[38] <= 0.5\ngini = 0.489\nsamples = 1131\nvalue = [650, 481]", fillcolor="#f8decc"] ;
620 -> 621 ;
622 [label="X[26] <= 0.5\ngini = 0.489\nsamples = 1116\nvalue = [640, 476]", fillcolor="#f8dfcc"] ;
621 -> 622 ;
623 [label="X[82] <= 0.5\ngini = 0.489\nsamples = 1076\nvalue = [619, 457]", fillcolor="#f8decb"] ;
622 -> 623 ;
624 [label="X[16] <= 0.5\ngini = 0.49\nsamples = 913\nvalue = [522, 391]", fillcolor="#f8dfcd"] ;
623 -> 624 ;
625 [label="X[30] <= 0.5\ngini = 0.49\nsamples = 889\nvalue = [507, 382]", fillcolor="#f9e0ce"] ;
624 -> 625 ;
626 [label="X[44] <= 0.5\ngini = 0.491\nsamples = 754\nvalue = [427, 327]", fillcolor="#f9e1d1"] ;
625 -> 626 ;
627 [label="X[52] <= 0.5\ngini = 0.492\nsamples = 726\nvalue = [410, 316]", fillcolor="#f9e2d2"] ;
626 -> 627 ;
628 [label="X[20] <= 0.5\ngini = 0.491\nsamples = 718\nvalue = [406, 312]", fillcolor="#f9e2d1"] ;
627 -> 628 ;
629 [label="X[27] <= 0.5\ngini = 0.491\nsamples = 661\nvalue = [375, 286]", fillcolor="#f9e1d0"] ;
628 -> 629 ;
630 [label="X[35] <= 0.5\ngini = 0.49\nsamples = 515\nvalue = [294, 221]", fillcolor="#f9e0ce"] ;
629 -> 630 ;
631 [label="X[81] <= 0.5\ngini = 0.49\nsamples = 502\nvalue = [287, 215]", fillcolor="#f8dfcd"] ;
630 -> 631 ;
632 [label="X[36] <= 0.5\ngini = 0.489\nsamples = 468\nvalue = [268, 200]", fillcolor="#f8dfcd"] ;
631 -> 632 ;
633 [label="X[61] <= 0.5\ngini = 0.49\nsamples = 463\nvalue = [265, 198]", fillcolor="#f8dfcd"] ;
632 -> 633 ;
634 [label="X[28] <= 0.5\ngini = 0.49\nsamples = 432\nvalue = [247, 185]", fillcolor="#f8dfcd"] ;
633 -> 634 ;
635 [label="X[74] <= 0.5\ngini = 0.49\nsamples = 91\nvalue = [52, 39]", fillcolor="#f8e0ce"] ;
634 -> 635 ;
636 [label="gini = 0.49\nsamples = 84\nvalue = [48, 36]", fillcolor="#f8e0ce"] ;
635 -> 636 ;
637 [label="gini = 0.49\nsamples = 7\nvalue = [4, 3]", fillcolor="#f8e0ce"] ;
635 -> 637 ;
638 [label="gini = 0.49\nsamples = 341\nvalue = [195, 146]", fillcolor="#f8dfcd"] ;
634 -> 638 ;
639 [label="gini = 0.487\nsamples = 31\nvalue = [18, 13]", fillcolor="#f8dcc8"] ;
633 -> 639 ;
640 [label="gini = 0.48\nsamples = 5\nvalue = [3, 2]", fillcolor="#f6d5bd"] ;
632 -> 640 ;
641 [label="gini = 0.493\nsamples = 34\nvalue = [19, 15]", fillcolor="#fae4d5"] ;
631 -> 641 ;
642 [label="gini = 0.497\nsamples = 13\nvalue = [7, 6]", fillcolor="#fbede3"] ;
630 -> 642 ;
643 [label="gini = 0.494\nsamples = 146\nvalue = [81, 65]", fillcolor="#fae6d8"] ;
629 -> 643 ;
644 [label="gini = 0.496\nsamples = 57\nvalue = [31, 26]", fillcolor="#fbebdf"] ;
628 -> 644 ;
645 [label="gini = 0.5\nsamples = 8\nvalue = [4, 4]", fillcolor="#ffffff"] ;
627 -> 645 ;
646 [label="gini = 0.477\nsamples = 28\nvalue = [17, 11]", fillcolor="#f6d3b9"] ;
626 -> 646 ;
647 [label="gini = 0.483\nsamples = 135\nvalue = [80, 55]", fillcolor="#f7d8c1"] ;
625 -> 647 ;
648 [label="gini = 0.469\nsamples = 24\nvalue = [15, 9]", fillcolor="#f5cdb0"] ;
624 -> 648 ;
649 [label="gini = 0.482\nsamples = 163\nvalue = [97, 66]", fillcolor="#f7d7c0"] ;
623 -> 649 ;
650 [label="gini = 0.499\nsamples = 40\nvalue = [21, 19]", fillcolor="#fdf3ec"] ;
622 -> 650 ;
651 [label="gini = 0.444\nsamples = 15\nvalue = [10, 5]", fillcolor="#f2c09c"] ;
621 -> 651 ;
652 [label="gini = 0.444\nsamples = 18\nvalue = [12, 6]", fillcolor="#f2c09c"] ;
620 -> 652 ;
653 [label="gini = 0.497\nsamples = 13\nvalue = [6, 7]", fillcolor="#e3f1fb"] ;
619 -> 653 ;
654 [label="gini = 0.426\nsamples = 13\nvalue = [9, 4]", fillcolor="#f1b991"] ;
618 -> 654 ;
655 [label="gini = 0.499\nsamples = 25\nvalue = [12, 13]", fillcolor="#f0f7fd"] ;
617 -> 655 ;
656 [label="gini = 0.0\nsamples = 1\nvalue = [0, 1]", fillcolor="#399de5"] ;
616 -> 656 ;
657 [label="gini = 0.5\nsamples = 90\nvalue = [46, 44]", fillcolor="#fefaf6"] ;
615 -> 657 ;
658 [label="gini = 0.0\nsamples = 1\nvalue = [0, 1]", fillcolor="#399de5"] ;
614 -> 658 ;
659 [label="gini = 0.426\nsamples = 26\nvalue = [18, 8]", fillcolor="#f1b991"] ;
613 -> 659 ;
660 [label="gini = 0.375\nsamples = 12\nvalue = [9, 3]", fillcolor="#eeab7b"] ;
612 -> 660 ;
661 [label="gini = 0.49\nsamples = 21\nvalue = [9, 12]", fillcolor="#cee6f8"] ;
611 -> 661 ;
662 [label="gini = 0.496\nsamples = 33\nvalue = [15, 18]", fillcolor="#deeffb"] ;
610 -> 662 ;
663 [label="gini = 0.245\nsamples = 7\nvalue = [6, 1]", fillcolor="#e9965a"] ;
609 -> 663 ;
664 [label="gini = 0.36\nsamples = 17\nvalue = [13, 4]", fillcolor="#eda876"] ;
608 -> 664 ;
665 [label="gini = 0.0\nsamples = 4\nvalue = [4, 0]", fillcolor="#e58139"] ;
607 -> 665 ;
666 [label="gini = 0.444\nsamples = 15\nvalue = [5, 10]", fillcolor="#9ccef2"] ;
606 -> 666 ;
667 [label="gini = 0.48\nsamples = 30\nvalue = [12, 18]", fillcolor="#bddef6"] ;
605 -> 667 ;
668 [label="gini = 0.475\nsamples = 36\nvalue = [14, 22]", fillcolor="#b7dbf6"] ;
604 -> 668 ;
669 [label="gini = 0.375\nsamples = 12\nvalue = [3, 9]", fillcolor="#7bbeee"] ;
603 -> 669 ;
670 [label="gini = 0.5\nsamples = 246\nvalue = [120, 126]", fillcolor="#f6fafe"] ;
602 -> 670 ;
671 [label="gini = 0.489\nsamples = 73\nvalue = [31, 42]", fillcolor="#cbe5f8"] ;
601 -> 671 ;
672 [label="gini = 0.474\nsamples = 44\nvalue = [17, 27]", fillcolor="#b6dbf5"] ;
600 -> 672 ;
673 [label="gini = 0.458\nsamples = 31\nvalue = [11, 20]", fillcolor="#a6d3f3"] ;
599 -> 673 ;
674 [label="gini = 0.434\nsamples = 22\nvalue = [7, 15]", fillcolor="#95cbf1"] ;
598 -> 674 ;
675 [label="gini = 0.49\nsamples = 98\nvalue = [42, 56]", fillcolor="#cee6f8"] ;
597 -> 675 ;
676 [label="gini = 0.391\nsamples = 15\nvalue = [4, 11]", fillcolor="#81c1ee"] ;
596 -> 676 ;
677 [label="gini = 0.0\nsamples = 5\nvalue = [5, 0]", fillcolor="#e58139"] ;
595 -> 677 ;
678 [label="gini = 0.478\nsamples = 71\nvalue = [28, 43]", fillcolor="#baddf6"] ;
594 -> 678 ;
679 [label="gini = 0.469\nsamples = 157\nvalue = [98, 59]", fillcolor="#f5cdb0"] ;
593 -> 679 ;
680 [label="gini = 0.413\nsamples = 48\nvalue = [34, 14]", fillcolor="#f0b58b"] ;
592 -> 680 ;
681 [label="gini = 0.36\nsamples = 17\nvalue = [4, 13]", fillcolor="#76bbed"] ;
591 -> 681 ;
682 [label="gini = 0.198\nsamples = 9\nvalue = [1, 8]", fillcolor="#52a9e8"] ;
590 -> 682 ;
683 [label="gini = 0.453\nsamples = 49\nvalue = [17, 32]", fillcolor="#a2d1f3"] ;
589 -> 683 ;
684 [label="gini = 0.18\nsamples = 10\nvalue = [1, 9]", fillcolor="#4fa8e8"] ;
588 -> 684 ;
685 [label="gini = 0.448\nsamples = 109\nvalue = [72, 37]", fillcolor="#f2c29f"] ;
587 -> 685 ;
686 [label="gini = 0.456\nsamples = 151\nvalue = [98, 53]", fillcolor="#f3c5a4"] ;
586 -> 686 ;
687 [label="gini = 0.476\nsamples = 128\nvalue = [50, 78]", fillcolor="#b8dcf6"] ;
585 -> 687 ;
688 [label="gini = 0.219\nsamples = 24\nvalue = [21, 3]", fillcolor="#e99355"] ;
584 -> 688 ;
689 [label="gini = 0.0\nsamples = 19\nvalue = [19, 0]", fillcolor="#e58139"] ;
583 -> 689 ;
690 [label="gini = 0.432\nsamples = 234\nvalue = [160, 74]", fillcolor="#f1bb95"] ;
582 -> 690 ;
691 [label="gini = 0.231\nsamples = 30\nvalue = [4, 26]", fillcolor="#57ace9"] ;
581 -> 691 ;
692 [label="gini = 0.458\nsamples = 6271\nvalue = [4044, 2227]", fillcolor="#f3c6a6"] ;
580 -> 692 ;
693 [label="X[4] <= 0.5\ngini = 0.486\nsamples = 24756\nvalue = [10327, 14429]", fillcolor="#c7e3f8"] ;
41 -> 693 ;
694 [label="X[3] <= 0.5\ngini = 0.486\nsamples = 24533\nvalue = [10193, 14340]", fillcolor="#c6e3f7"] ;
693 -> 694 ;
695 [label="X[5] <= 0.5\ngini = 0.486\nsamples = 24482\nvalue = [10180, 14302]", fillcolor="#c6e3f8"] ;
694 -> 695 ;
696 [label="X[0] <= 0.5\ngini = 0.488\nsamples = 6387\nvalue = [2708, 3679]", fillcolor="#cbe5f8"] ;
695 -> 696 ;
697 [label="X[1] <= 0.5\ngini = 0.488\nsamples = 6380\nvalue = [2704, 3676]", fillcolor="#cbe5f8"] ;
696 -> 697 ;
698 [label="gini = 0.488\nsamples = 6309\nvalue = [2674, 3635]", fillcolor="#cbe5f8"] ;
697 -> 698 ;
699 [label="gini = 0.488\nsamples = 71\nvalue = [30, 41]", fillcolor="#cae5f8"] ;
697 -> 699 ;
700 [label="gini = 0.49\nsamples = 7\nvalue = [4, 3]", fillcolor="#f8e0ce"] ;
696 -> 700 ;
701 [label="gini = 0.485\nsamples = 18095\nvalue = [7472, 10623]", fillcolor="#c4e2f7"] ;
695 -> 701 ;
702 [label="gini = 0.38\nsamples = 51\nvalue = [13, 38]", fillcolor="#7dbfee"] ;
694 -> 702 ;
703 [label="gini = 0.48\nsamples = 223\nvalue = [134, 89]", fillcolor="#f6d5bd"] ;
693 -> 703 ;
704 [label="X[3] <= 0.5\ngini = 0.31\nsamples = 1591\nvalue = [1286, 305]", fillcolor="#eb9f68"] ;
40 -> 704 ;
705 [label="X[5] <= 0.5\ngini = 0.308\nsamples = 1587\nvalue = [1285, 302]", fillcolor="#eb9f68"] ;
704 -> 705 ;
706 [label="X[2] <= 0.5\ngini = 0.302\nsamples = 961\nvalue = [783, 178]", fillcolor="#eb9e66"] ;
705 -> 706 ;
707 [label="X[0] <= 0.5\ngini = 0.263\nsamples = 45\nvalue = [38, 7]", fillcolor="#ea985d"] ;
706 -> 707 ;
708 [label="X[4] <= 0.5\ngini = 0.268\nsamples = 44\nvalue = [37, 7]", fillcolor="#ea995e"] ;
707 -> 708 ;
709 [label="gini = 0.26\nsamples = 39\nvalue = [33, 6]", fillcolor="#ea985d"] ;
708 -> 709 ;
710 [label="gini = 0.32\nsamples = 5\nvalue = [4, 1]", fillcolor="#eca06a"] ;
708 -> 710 ;
711 [label="gini = 0.0\nsamples = 1\nvalue = [1, 0]", fillcolor="#e58139"] ;
707 -> 711 ;
712 [label="gini = 0.304\nsamples = 916\nvalue = [745, 171]", fillcolor="#eb9e66"] ;
706 -> 712 ;
713 [label="gini = 0.318\nsamples = 626\nvalue = [502, 124]", fillcolor="#eba06a"] ;
705 -> 713 ;
714 [label="gini = 0.375\nsamples = 4\nvalue = [1, 3]", fillcolor="#7bbeee"] ;
704 -> 714 ;
715 [label="X[2] <= 0.5\ngini = 0.483\nsamples = 16667\nvalue = [9882, 6785]", fillcolor="#f7d8c1"] ;
39 -> 715 ;
716 [label="X[4] <= 0.5\ngini = 0.477\nsamples = 9687\nvalue = [5877, 3810]", fillcolor="#f6d3b9"] ;
715 -> 716 ;
717 [label="X[1] <= 0.5\ngini = 0.478\nsamples = 9569\nvalue = [5790, 3779]", fillcolor="#f6d3ba"] ;
716 -> 717 ;
718 [label="X[3] <= 0.5\ngini = 0.478\nsamples = 9444\nvalue = [5709, 3735]", fillcolor="#f6d3bb"] ;
717 -> 718 ;
719 [label="X[0] <= 0.5\ngini = 0.478\nsamples = 9367\nvalue = [5663, 3704]", fillcolor="#f6d3bb"] ;
718 -> 719 ;
720 [label="gini = 0.478\nsamples = 9359\nvalue = [5658, 3701]", fillcolor="#f6d3bb"] ;
719 -> 720 ;
721 [label="gini = 0.469\nsamples = 8\nvalue = [5, 3]", fillcolor="#f5cdb0"] ;
719 -> 721 ;
722 [label="gini = 0.481\nsamples = 77\nvalue = [46, 31]", fillcolor="#f7d6be"] ;
718 -> 722 ;
723 [label="gini = 0.456\nsamples = 125\nvalue = [81, 44]", fillcolor="#f3c5a5"] ;
717 -> 723 ;
724 [label="gini = 0.387\nsamples = 118\nvalue = [87, 31]", fillcolor="#eeae80"] ;
716 -> 724 ;
725 [label="gini = 0.489\nsamples = 6980\nvalue = [4005, 2975]", fillcolor="#f8dfcc"] ;
715 -> 725 ;
726 [label="X[3] <= 0.5\ngini = 0.449\nsamples = 6258\nvalue = [4124, 2134]", fillcolor="#f2c29f"] ;
38 -> 726 ;
727 [label="X[1] <= 0.5\ngini = 0.45\nsamples = 6251\nvalue = [4118, 2133]", fillcolor="#f2c2a0"] ;
726 -> 727 ;
728 [label="X[2] <= 0.5\ngini = 0.45\nsamples = 6236\nvalue = [4107, 2129]", fillcolor="#f2c2a0"] ;
727 -> 728 ;
729 [label="X[5] <= 0.5\ngini = 0.45\nsamples = 5728\nvalue = [3769, 1959]", fillcolor="#f3c2a0"] ;
728 -> 729 ;
730 [label="gini = 0.461\nsamples = 25\nvalue = [16, 9]", fillcolor="#f4c8a8"] ;
729 -> 730 ;
731 [label="gini = 0.45\nsamples = 5703\nvalue = [3753, 1950]", fillcolor="#f3c2a0"] ;
729 -> 731 ;
732 [label="gini = 0.445\nsamples = 508\nvalue = [338, 170]", fillcolor="#f2c09d"] ;
728 -> 732 ;
733 [label="gini = 0.391\nsamples = 15\nvalue = [11, 4]", fillcolor="#eeaf81"] ;
727 -> 733 ;
734 [label="gini = 0.245\nsamples = 7\nvalue = [6, 1]", fillcolor="#e9965a"] ;
726 -> 734 ;
735 [label="X[1] <= 0.5\ngini = 0.345\nsamples = 2264\nvalue = [1762, 502]", fillcolor="#eca571"] ;
37 -> 735 ;
736 [label="X[4] <= 0.5\ngini = 0.346\nsamples = 2251\nvalue = [1750, 501]", fillcolor="#eca572"] ;
735 -> 736 ;
737 [label="X[5] <= 0.5\ngini = 0.347\nsamples = 2233\nvalue = [1734, 499]", fillcolor="#eca572"] ;
736 -> 737 ;
738 [label="X[2] <= 0.5\ngini = 0.338\nsamples = 990\nvalue = [777, 213]", fillcolor="#eca46f"] ;
737 -> 738 ;
739 [label="gini = 0.0\nsamples = 1\nvalue = [1, 0]", fillcolor="#e58139"] ;
738 -> 739 ;
740 [label="gini = 0.338\nsamples = 989\nvalue = [776, 213]", fillcolor="#eca46f"] ;
738 -> 740 ;
741 [label="gini = 0.354\nsamples = 1243\nvalue = [957, 286]", fillcolor="#eda774"] ;
737 -> 741 ;
742 [label="gini = 0.198\nsamples = 18\nvalue = [16, 2]", fillcolor="#e89152"] ;
736 -> 742 ;
743 [label="gini = 0.142\nsamples = 13\nvalue = [12, 1]", fillcolor="#e78c49"] ;
735 -> 743 ;
744 [label="X[2] <= 0.5\ngini = 0.4\nsamples = 4381\nvalue = [1209, 3172]", fillcolor="#84c2ef"] ;
36 -> 744 ;
745 [label="X[1] <= 0.5\ngini = 0.428\nsamples = 2200\nvalue = [684, 1516]", fillcolor="#92c9f1"] ;
744 -> 745 ;
746 [label="X[3] <= 0.5\ngini = 0.42\nsamples = 2047\nvalue = [615, 1432]", fillcolor="#8ec7f0"] ;
745 -> 746 ;
747 [label="X[0] <= 0.5\ngini = 0.422\nsamples = 2007\nvalue = [608, 1399]", fillcolor="#8fc8f0"] ;
746 -> 747 ;
748 [label="X[4] <= 0.5\ngini = 0.422\nsamples = 2003\nvalue = [606, 1397]", fillcolor="#8fc8f0"] ;
747 -> 748 ;
749 [label="gini = 0.422\nsamples = 1976\nvalue = [597, 1379]", fillcolor="#8fc7f0"] ;
748 -> 749 ;
750 [label="gini = 0.444\nsamples = 27\nvalue = [9, 18]", fillcolor="#9ccef2"] ;
748 -> 750 ;
751 [label="gini = 0.5\nsamples = 4\nvalue = [2, 2]", fillcolor="#ffffff"] ;
747 -> 751 ;
752 [label="gini = 0.289\nsamples = 40\nvalue = [7, 33]", fillcolor="#63b2eb"] ;
746 -> 752 ;
753 [label="gini = 0.495\nsamples = 153\nvalue = [69, 84]", fillcolor="#dceefa"] ;
745 -> 753 ;
754 [label="gini = 0.366\nsamples = 2181\nvalue = [525, 1656]", fillcolor="#78bced"] ;
744 -> 754 ;
755 [label="X[3] <= 0.5\ngini = 0.387\nsamples = 4096\nvalue = [1073, 3023]", fillcolor="#7fc0ee"] ;
35 -> 755 ;
756 [label="X[1] <= 0.5\ngini = 0.39\nsamples = 4015\nvalue = [1065, 2950]", fillcolor="#80c0ee"] ;
755 -> 756 ;
757 [label="X[2] <= 0.5\ngini = 0.394\nsamples = 3875\nvalue = [1044, 2831]", fillcolor="#82c1ef"] ;
756 -> 757 ;
758 [label="X[4] <= 0.5\ngini = 0.403\nsamples = 2684\nvalue = [752, 1932]", fillcolor="#86c3ef"] ;
757 -> 758 ;
759 [label="X[5] <= 0.5\ngini = 0.402\nsamples = 2609\nvalue = [728, 1881]", fillcolor="#86c3ef"] ;
758 -> 759 ;
760 [label="gini = 0.32\nsamples = 10\nvalue = [2, 8]", fillcolor="#6ab6ec"] ;
759 -> 760 ;
761 [label="gini = 0.403\nsamples = 2599\nvalue = [726, 1873]", fillcolor="#86c3ef"] ;
759 -> 761 ;
762 [label="gini = 0.435\nsamples = 75\nvalue = [24, 51]", fillcolor="#96cbf1"] ;
758 -> 762 ;
763 [label="gini = 0.37\nsamples = 1191\nvalue = [292, 899]", fillcolor="#79bded"] ;
757 -> 763 ;
764 [label="gini = 0.255\nsamples = 140\nvalue = [21, 119]", fillcolor="#5caeea"] ;
756 -> 764 ;
765 [label="gini = 0.178\nsamples = 81\nvalue = [8, 73]", fillcolor="#4fa8e8"] ;
755 -> 765 ;
766 [label="X[5] <= 0.5\ngini = 0.372\nsamples = 3512\nvalue = [2643, 869]", fillcolor="#eeaa7a"] ;
34 -> 766 ;
767 [label="X[2] <= 0.5\ngini = 0.346\nsamples = 1402\nvalue = [1090, 312]", fillcolor="#eca572"] ;
766 -> 767 ;
768 [label="X[0] <= 0.5\ngini = 0.272\nsamples = 74\nvalue = [62, 12]", fillcolor="#ea995f"] ;
767 -> 768 ;
769 [label="X[4] <= 0.5\ngini = 0.278\nsamples = 72\nvalue = [60, 12]", fillcolor="#ea9a61"] ;
768 -> 769 ;
770 [label="X[3] <= 0.5\ngini = 0.32\nsamples = 25\nvalue = [20, 5]", fillcolor="#eca06a"] ;
769 -> 770 ;
771 [label="gini = 0.32\nsamples = 15\nvalue = [12, 3]", fillcolor="#eca06a"] ;
770 -> 771 ;
772 [label="gini = 0.32\nsamples = 10\nvalue = [8, 2]", fillcolor="#eca06a"] ;
770 -> 772 ;
773 [label="gini = 0.254\nsamples = 47\nvalue = [40, 7]", fillcolor="#ea975c"] ;
769 -> 773 ;
774 [label="gini = 0.0\nsamples = 2\nvalue = [2, 0]", fillcolor="#e58139"] ;
768 -> 774 ;
775 [label="gini = 0.35\nsamples = 1328\nvalue = [1028, 300]", fillcolor="#eda673"] ;
767 -> 775 ;
776 [label="gini = 0.389\nsamples = 2110\nvalue = [1553, 557]", fillcolor="#eeae80"] ;
766 -> 776 ;
777 [label="X[3] <= 0.5\ngini = 0.479\nsamples = 27663\nvalue = [10990, 16673]", fillcolor="#bcdef6"] ;
33 -> 777 ;
778 [label="X[4] <= 0.5\ngini = 0.48\nsamples = 26948\nvalue = [10811, 16137]", fillcolor="#bedff6"] ;
777 -> 778 ;
779 [label="X[1] <= 0.5\ngini = 0.481\nsamples = 26374\nvalue = [10613, 15761]", fillcolor="#bedff7"] ;
778 -> 779 ;
780 [label="X[0] <= 0.5\ngini = 0.481\nsamples = 25975\nvalue = [10471, 15504]", fillcolor="#bfdff7"] ;
779 -> 780 ;
781 [label="X[5] <= 0.5\ngini = 0.481\nsamples = 25936\nvalue = [10453, 15483]", fillcolor="#bfdff7"] ;
780 -> 781 ;
782 [label="gini = 0.481\nsamples = 7012\nvalue = [2830, 4182]", fillcolor="#bfdff7"] ;
781 -> 782 ;
783 [label="gini = 0.481\nsamples = 18924\nvalue = [7623, 11301]", fillcolor="#bfdff7"] ;
781 -> 783 ;
784 [label="gini = 0.497\nsamples = 39\nvalue = [18, 21]", fillcolor="#e3f1fb"] ;
780 -> 784 ;
785 [label="gini = 0.458\nsamples = 399\nvalue = [142, 257]", fillcolor="#a6d3f3"] ;
779 -> 785 ;
786 [label="gini = 0.452\nsamples = 574\nvalue = [198, 376]", fillcolor="#a1d1f3"] ;
778 -> 786 ;
787 [label="gini = 0.375\nsamples = 715\nvalue = [179, 536]", fillcolor="#7bbeee"] ;
777 -> 787 ;
788 [label="X[2] <= 0.5\ngini = 0.376\nsamples = 4450\nvalue = [1118, 3332]", fillcolor="#7bbeee"] ;
32 -> 788 ;
789 [label="X[3] <= 0.5\ngini = 0.387\nsamples = 3274\nvalue = [859, 2415]", fillcolor="#7fc0ee"] ;
788 -> 789 ;
790 [label="X[5] <= 0.5\ngini = 0.388\nsamples = 3232\nvalue = [852, 2380]", fillcolor="#80c0ee"] ;
789 -> 790 ;
791 [label="X[0] <= 0.5\ngini = 0.424\nsamples = 72\nvalue = [22, 50]", fillcolor="#90c8f0"] ;
790 -> 791 ;
792 [label="X[1] <= 0.5\ngini = 0.42\nsamples = 70\nvalue = [21, 49]", fillcolor="#8ec7f0"] ;
791 -> 792 ;
793 [label="gini = 0.4\nsamples = 29\nvalue = [8, 21]", fillcolor="#84c2ef"] ;
792 -> 793 ;
794 [label="gini = 0.433\nsamples = 41\nvalue = [13, 28]", fillcolor="#95caf1"] ;
792 -> 794 ;
795 [label="gini = 0.5\nsamples = 2\nvalue = [1, 1]", fillcolor="#ffffff"] ;
791 -> 795 ;
796 [label="gini = 0.387\nsamples = 3160\nvalue = [830, 2330]", fillcolor="#80c0ee"] ;
790 -> 796 ;
797 [label="gini = 0.278\nsamples = 42\nvalue = [7, 35]", fillcolor="#61b1ea"] ;
789 -> 797 ;
798 [label="gini = 0.343\nsamples = 1176\nvalue = [259, 917]", fillcolor="#71b9ec"] ;
788 -> 798 ;
799 [label="X[3] <= 0.5\ngini = 0.357\nsamples = 4469\nvalue = [1041, 3428]", fillcolor="#75bbed"] ;
31 -> 799 ;
800 [label="X[4] <= 0.5\ngini = 0.357\nsamples = 4468\nvalue = [1040, 3428]", fillcolor="#75bbed"] ;
799 -> 800 ;
801 [label="X[1] <= 0.5\ngini = 0.356\nsamples = 4450\nvalue = [1033, 3417]", fillcolor="#75bbed"] ;
800 -> 801 ;
802 [label="X[5] <= 0.5\ngini = 0.356\nsamples = 4434\nvalue = [1029, 3405]", fillcolor="#75bbed"] ;
801 -> 802 ;
803 [label="gini = 0.357\nsamples = 1688\nvalue = [392, 1296]", fillcolor="#75bbed"] ;
802 -> 803 ;
804 [label="gini = 0.356\nsamples = 2746\nvalue = [637, 2109]", fillcolor="#75bbed"] ;
802 -> 804 ;
805 [label="gini = 0.375\nsamples = 16\nvalue = [4, 12]", fillcolor="#7bbeee"] ;
801 -> 805 ;
806 [label="gini = 0.475\nsamples = 18\nvalue = [7, 11]", fillcolor="#b7dbf6"] ;
800 -> 806 ;
807 [label="gini = 0.0\nsamples = 1\nvalue = [1, 0]", fillcolor="#e58139"] ;
799 -> 807 ;
808 [label="X[5] <= 0.5\ngini = 0.461\nsamples = 19562\nvalue = [7032, 12530]", fillcolor="#a8d4f4"] ;
30 -> 808 ;
809 [label="X[0] <= 0.5\ngini = 0.444\nsamples = 7142\nvalue = [2376, 4766]", fillcolor="#9ccef2"] ;
808 -> 809 ;
810 [label="X[3] <= 0.5\ngini = 0.444\nsamples = 7140\nvalue = [2374, 4766]", fillcolor="#9ccef2"] ;
809 -> 810 ;
811 [label="X[4] <= 0.5\ngini = 0.444\nsamples = 7101\nvalue = [2365, 4736]", fillcolor="#9ccef2"] ;
810 -> 811 ;
812 [label="X[2] <= 0.5\ngini = 0.444\nsamples = 6906\nvalue = [2302, 4604]", fillcolor="#9ccef2"] ;
811 -> 812 ;
813 [label="gini = 0.444\nsamples = 135\nvalue = [45, 90]", fillcolor="#9ccef2"] ;
812 -> 813 ;
814 [label="gini = 0.444\nsamples = 6771\nvalue = [2257, 4514]", fillcolor="#9ccef2"] ;
812 -> 814 ;
815 [label="gini = 0.437\nsamples = 195\nvalue = [63, 132]", fillcolor="#98ccf1"] ;
811 -> 815 ;
816 [label="gini = 0.355\nsamples = 39\nvalue = [9, 30]", fillcolor="#74baed"] ;
810 -> 816 ;
817 [label="gini = 0.0\nsamples = 2\nvalue = [2, 0]", fillcolor="#e58139"] ;
809 -> 817 ;
818 [label="gini = 0.469\nsamples = 12420\nvalue = [4656, 7764]", fillcolor="#b0d8f5"] ;
808 -> 818 ;
819 [label="X[1] <= 0.5\ngini = 0.476\nsamples = 47077\nvalue = [18397, 28680]", fillcolor="#b8dcf6"] ;
29 -> 819 ;
820 [label="X[4] <= 0.5\ngini = 0.476\nsamples = 46504\nvalue = [18108, 28396]", fillcolor="#b7dbf6"] ;
819 -> 820 ;
821 [label="X[3] <= 0.5\ngini = 0.475\nsamples = 46181\nvalue = [17939, 28242]", fillcolor="#b7dbf6"] ;
820 -> 821 ;
822 [label="X[0] <= 0.5\ngini = 0.475\nsamples = 45733\nvalue = [17730, 28003]", fillcolor="#b6dbf5"] ;
821 -> 822 ;
823 [label="X[5] <= 0.5\ngini = 0.475\nsamples = 45711\nvalue = [17717, 27994]", fillcolor="#b6dbf5"] ;
822 -> 823 ;
824 [label="gini = 0.474\nsamples = 20534\nvalue = [7920, 12614]", fillcolor="#b5dbf5"] ;
823 -> 824 ;
825 [label="gini = 0.475\nsamples = 25177\nvalue = [9797, 15380]", fillcolor="#b7dbf6"] ;
823 -> 825 ;
826 [label="gini = 0.483\nsamples = 22\nvalue = [13, 9]", fillcolor="#f7d8c2"] ;
822 -> 826 ;
827 [label="gini = 0.498\nsamples = 448\nvalue = [209, 239]", fillcolor="#e6f3fc"] ;
821 -> 827 ;
828 [label="gini = 0.499\nsamples = 323\nvalue = [169, 154]", fillcolor="#fdf4ed"] ;
820 -> 828 ;
829 [label="gini = 0.5\nsamples = 573\nvalue = [289, 284]", fillcolor="#fffdfc"] ;
819 -> 829 ;
830 [label="X[4] <= 0.5\ngini = 0.468\nsamples = 39637\nvalue = [14810, 24827]", fillcolor="#afd7f5"] ;
28 -> 830 ;
831 [label="X[2] <= 0.5\ngini = 0.466\nsamples = 39223\nvalue = [14533, 24690]", fillcolor="#aed7f4"] ;
830 -> 831 ;
832 [label="X[5] <= 0.5\ngini = 0.463\nsamples = 24304\nvalue = [8834, 15470]", fillcolor="#aad5f4"] ;
831 -> 832 ;
833 [label="X[0] <= 0.5\ngini = 0.442\nsamples = 653\nvalue = [215, 438]", fillcolor="#9acdf2"] ;
832 -> 833 ;
834 [label="X[1] <= 0.5\ngini = 0.439\nsamples = 635\nvalue = [207, 428]", fillcolor="#99ccf2"] ;
833 -> 834 ;
835 [label="gini = 0.438\nsamples = 142\nvalue = [46, 96]", fillcolor="#98ccf1"] ;
834 -> 835 ;
836 [label="gini = 0.44\nsamples = 493\nvalue = [161, 332]", fillcolor="#99cdf2"] ;
834 -> 836 ;
837 [label="gini = 0.494\nsamples = 18\nvalue = [8, 10]", fillcolor="#d7ebfa"] ;
833 -> 837 ;
838 [label="gini = 0.463\nsamples = 23651\nvalue = [8619, 15032]", fillcolor="#abd5f4"] ;
832 -> 838 ;
839 [label="gini = 0.472\nsamples = 14919\nvalue = [5699, 9220]", fillcolor="#b3daf5"] ;
831 -> 839 ;
840 [label="gini = 0.443\nsamples = 414\nvalue = [277, 137]", fillcolor="#f2bf9b"] ;
830 -> 840 ;
841 [label="X[2] <= 0.5\ngini = 0.316\nsamples = 6842\nvalue = [1347, 5495]", fillcolor="#6ab5eb"] ;
27 -> 841 ;
842 [label="X[1] <= 0.5\ngini = 0.298\nsamples = 4598\nvalue = [838, 3760]", fillcolor="#65b3eb"] ;
841 -> 842 ;
843 [label="X[5] <= 0.5\ngini = 0.296\nsamples = 4556\nvalue = [824, 3732]", fillcolor="#65b3eb"] ;
842 -> 843 ;
844 [label="X[3] <= 0.5\ngini = 0.253\nsamples = 975\nvalue = [145, 830]", fillcolor="#5caeea"] ;
843 -> 844 ;
845 [label="X[4] <= 0.5\ngini = 0.213\nsamples = 215\nvalue = [26, 189]", fillcolor="#54aae9"] ;
844 -> 845 ;
846 [label="gini = 0.0\nsamples = 2\nvalue = [0, 2]", fillcolor="#399de5"] ;
845 -> 846 ;
847 [label="gini = 0.214\nsamples = 213\nvalue = [26, 187]", fillcolor="#55abe9"] ;
845 -> 847 ;
848 [label="gini = 0.264\nsamples = 760\nvalue = [119, 641]", fillcolor="#5eafea"] ;
844 -> 848 ;
849 [label="gini = 0.307\nsamples = 3581\nvalue = [679, 2902]", fillcolor="#67b4eb"] ;
843 -> 849 ;
850 [label="gini = 0.444\nsamples = 42\nvalue = [14, 28]", fillcolor="#9ccef2"] ;
842 -> 850 ;
851 [label="gini = 0.351\nsamples = 2244\nvalue = [509, 1735]", fillcolor="#73baed"] ;
841 -> 851 ;
852 [label="X[89] <= 0.5\ngini = 0.492\nsamples = 2444490\nvalue = [1069236, 1375254]", fillcolor="#d3e9f9"] ;
26 -> 852 ;
853 [label="X[70] <= 0.5\ngini = 0.492\nsamples = 2438952\nvalue = [1064873, 1374079]", fillcolor="#d2e9f9"] ;
852 -> 853 ;
854 [label="X[33] <= 0.5\ngini = 0.492\nsamples = 2431075\nvalue = [1063697, 1367378]", fillcolor="#d3e9f9"] ;
853 -> 854 ;
855 [label="X[65] <= 0.5\ngini = 0.493\nsamples = 2411243\nvalue = [1058471, 1352772]", fillcolor="#d4eaf9"] ;
854 -> 855 ;
856 [label="X[50] <= 0.5\ngini = 0.492\nsamples = 2348539\nvalue = [1025101, 1323438]", fillcolor="#d2e9f9"] ;
855 -> 856 ;
857 [label="X[24] <= 0.5\ngini = 0.492\nsamples = 2339918\nvalue = [1019130, 1320788]", fillcolor="#d2e9f9"] ;
856 -> 857 ;
858 [label="X[87] <= 0.5\ngini = 0.491\nsamples = 2330033\nvalue = [1012569, 1317464]", fillcolor="#d1e8f9"] ;
857 -> 858 ;
859 [label="X[37] <= 0.5\ngini = 0.491\nsamples = 2318525\nvalue = [1005148, 1313377]", fillcolor="#d1e8f9"] ;
858 -> 859 ;
860 [label="X[34] <= 0.5\ngini = 0.491\nsamples = 2308283\nvalue = [998472, 1309811]", fillcolor="#d0e8f9"] ;
859 -> 860 ;
861 [label="X[18] <= 0.5\ngini = 0.491\nsamples = 2296706\nvalue = [991128, 1305578]", fillcolor="#cfe7f9"] ;
860 -> 861 ;
862 [label="X[21] <= 0.5\ngini = 0.49\nsamples = 2257274\nvalue = [969804, 1287470]", fillcolor="#cee7f9"] ;
861 -> 862 ;
863 [label="X[86] <= 0.5\ngini = 0.49\nsamples = 2240248\nvalue = [959678, 1280570]", fillcolor="#cde6f8"] ;
862 -> 863 ;
864 [label="X[36] <= 0.5\ngini = 0.49\nsamples = 2229592\nvalue = [957260, 1272332]", fillcolor="#cee7f9"] ;
863 -> 864 ;
865 [label="X[29] <= 0.5\ngini = 0.49\nsamples = 2198282\nvalue = [940241, 1258041]", fillcolor="#cde6f8"] ;
864 -> 865 ;
866 [label="X[74] <= 0.5\ngini = 0.489\nsamples = 2191569\nvalue = [935752, 1255817]", fillcolor="#cde6f8"] ;
865 -> 866 ;
867 [label="X[3] <= 0.5\ngini = 0.49\nsamples = 2184308\nvalue = [934327, 1249981]", fillcolor="#cde6f8"] ;
866 -> 867 ;
868 [label="X[62] <= 0.5\ngini = 0.49\nsamples = 2142497\nvalue = [920284, 1222213]", fillcolor="#cee7f9"] ;
867 -> 868 ;
869 [label="X[108] <= 0.5\ngini = 0.49\nsamples = 2135672\nvalue = [915814, 1219858]", fillcolor="#cee7f9"] ;
868 -> 869 ;
870 [label="X[23] <= 0.5\ngini = 0.487\nsamples = 1389642\nvalue = [583225, 806417]", fillcolor="#c8e4f8"] ;
869 -> 870 ;
871 [label="X[48] <= 0.5\ngini = 0.487\nsamples = 1377052\nvalue = [575992, 801060]", fillcolor="#c7e3f8"] ;
870 -> 871 ;
872 [label="X[38] <= 0.5\ngini = 0.486\nsamples = 1347023\nvalue = [560607, 786416]", fillcolor="#c6e3f8"] ;
871 -> 872 ;
873 [label="X[78] <= 0.5\ngini = 0.485\nsamples = 1331841\nvalue = [552272, 779569]", fillcolor="#c5e2f7"] ;
872 -> 873 ;
874 [label="X[26] <= 0.5\ngini = 0.486\nsamples = 1323234\nvalue = [550111, 773123]", fillcolor="#c6e3f8"] ;
873 -> 874 ;
875 [label="X[22] <= 0.5\ngini = 0.487\nsamples = 1281053\nvalue = [535666, 745387]", fillcolor="#c7e3f8"] ;
874 -> 875 ;
876 [label="X[46] <= 0.5\ngini = 0.486\nsamples = 1274218\nvalue = [531598, 742620]", fillcolor="#c7e3f8"] ;
875 -> 876 ;
877 [label="X[9] <= 0.5\ngini = 0.486\nsamples = 1270690\nvalue = [529270, 741420]", fillcolor="#c6e3f8"] ;
876 -> 877 ;
878 [label="X[107] <= 0.5\ngini = 0.486\nsamples = 1262749\nvalue = [527216, 735533]", fillcolor="#c7e3f8"] ;
877 -> 878 ;
879 [label="X[90] <= 0.5\ngini = 0.487\nsamples = 1256320\nvalue = [525666, 730654]", fillcolor="#c7e4f8"] ;
878 -> 879 ;
880 [label="X[58] <= 0.5\ngini = 0.487\nsamples = 1247460\nvalue = [523269, 724191]", fillcolor="#c8e4f8"] ;
879 -> 880 ;
881 [label="X[95] <= 0.5\ngini = 0.487\nsamples = 1242493\nvalue = [520224, 722269]", fillcolor="#c8e4f8"] ;
880 -> 881 ;
882 [label="X[63] <= 0.5\ngini = 0.487\nsamples = 1238180\nvalue = [519285, 718895]", fillcolor="#c8e4f8"] ;
881 -> 882 ;
883 [label="X[2] <= 0.5\ngini = 0.488\nsamples = 1116115\nvalue = [472539, 643576]", fillcolor="#cae5f8"] ;
882 -> 883 ;
884 [label="X[94] <= 0.5\ngini = 0.492\nsamples = 597949\nvalue = [261297, 336652]", fillcolor="#d3e9f9"] ;
883 -> 884 ;
885 [label="X[13] <= 0.5\ngini = 0.493\nsamples = 562786\nvalue = [248245, 314541]", fillcolor="#d5eafa"] ;
884 -> 885 ;
886 [label="X[79] <= 0.5\ngini = 0.492\nsamples = 538030\nvalue = [235477, 302553]", fillcolor="#d3e9f9"] ;
885 -> 886 ;
887 [label="X[27] <= 0.5\ngini = 0.492\nsamples = 535700\nvalue = [234992, 300708]", fillcolor="#d4eaf9"] ;
886 -> 887 ;
888 [label="X[83] <= 0.5\ngini = 0.491\nsamples = 475962\nvalue = [206329, 269633]", fillcolor="#d1e8f9"] ;
887 -> 888 ;
889 [label="X[72] <= 0.5\ngini = 0.492\nsamples = 472000\nvalue = [205233, 266767]", fillcolor="#d1e8f9"] ;
888 -> 889 ;
890 [label="X[14] <= 0.5\ngini = 0.492\nsamples = 467653\nvalue = [203984, 263669]", fillcolor="#d2e9f9"] ;
889 -> 890 ;
891 [label="X[92] <= 0.5\ngini = 0.492\nsamples = 463939\nvalue = [201813, 262126]", fillcolor="#d1e8f9"] ;
890 -> 891 ;
892 [label="X[5] <= 0.5\ngini = 0.491\nsamples = 434499\nvalue = [187555, 246944]", fillcolor="#cfe7f9"] ;
891 -> 892 ;
893 [label="X[96] <= 0.5\ngini = 0.5\nsamples = 13881\nvalue = [6868, 7013]", fillcolor="#fbfdfe"] ;
892 -> 893 ;
894 [label="X[101] <= 0.5\ngini = 0.5\nsamples = 13512\nvalue = [6758, 6754]", fillcolor="#ffffff"] ;
893 -> 894 ;
895 [label="X[25] <= 0.5\ngini = 0.5\nsamples = 13082\nvalue = [6612, 6470]", fillcolor="#fefcfb"] ;
894 -> 895 ;
896 [label="X[16] <= 0.5\ngini = 0.5\nsamples = 11965\nvalue = [5962, 6003]", fillcolor="#fefeff"] ;
895 -> 896 ;
897 [label="X[1] <= 0.5\ngini = 0.5\nsamples = 11627\nvalue = [5744, 5883]", fillcolor="#fafdfe"] ;
896 -> 897 ;
898 [label="X[42] <= 0.5\ngini = 0.499\nsamples = 6712\nvalue = [3193, 3519]", fillcolor="#edf6fd"] ;
897 -> 898 ;
899 [label="X[17] <= 0.5\ngini = 0.498\nsamples = 6484\nvalue = [3058, 3426]", fillcolor="#eaf4fc"] ;
898 -> 899 ;
900 [label="X[71] <= 0.5\ngini = 0.498\nsamples = 6132\nvalue = [2860, 3272]", fillcolor="#e6f3fc"] ;
899 -> 900 ;
901 [label="X[76] <= 0.5\ngini = 0.498\nsamples = 5912\nvalue = [2780, 3132]", fillcolor="#e9f4fc"] ;
900 -> 901 ;
902 [label="X[67] <= 0.5\ngini = 0.499\nsamples = 5719\nvalue = [2711, 3008]", fillcolor="#ebf5fc"] ;
901 -> 902 ;
903 [label="X[40] <= 0.5\ngini = 0.499\nsamples = 5509\nvalue = [2633, 2876]", fillcolor="#eef7fd"] ;
902 -> 903 ;
904 [label="X[82] <= 0.5\ngini = 0.499\nsamples = 5450\nvalue = [2594, 2856]", fillcolor="#edf6fd"] ;
903 -> 904 ;
905 [label="X[28] <= 0.5\ngini = 0.499\nsamples = 5256\nvalue = [2486, 2770]", fillcolor="#ebf5fc"] ;
904 -> 905 ;
906 [label="X[75] <= 0.5\ngini = 0.499\nsamples = 3654\nvalue = [1762, 1892]", fillcolor="#f1f8fd"] ;
905 -> 906 ;
907 [label="X[80] <= 0.5\ngini = 0.5\nsamples = 3469\nvalue = [1687, 1782]", fillcolor="#f4fafe"] ;
906 -> 907 ;
908 [label="X[39] <= 0.5\ngini = 0.5\nsamples = 3101\nvalue = [1527, 1574]", fillcolor="#f9fcfe"] ;
907 -> 908 ;
909 [label="X[81] <= 0.5\ngini = 0.5\nsamples = 3041\nvalue = [1504, 1537]", fillcolor="#fbfdfe"] ;
908 -> 909 ;
910 [label="X[106] <= 0.5\ngini = 0.5\nsamples = 2919\nvalue = [1453, 1466]", fillcolor="#fdfeff"] ;
909 -> 910 ;
911 [label="X[4] <= 0.5\ngini = 0.5\nsamples = 2808\nvalue = [1407, 1401]", fillcolor="#fffefe"] ;
910 -> 911 ;
912 [label="X[30] <= 0.5\ngini = 0.494\nsamples = 191\nvalue = [85, 106]", fillcolor="#d8ecfa"] ;
911 -> 912 ;
913 [label="X[41] <= 0.5\ngini = 0.49\nsamples = 182\nvalue = [78, 104]", fillcolor="#cee6f8"] ;
912 -> 913 ;
914 [label="X[105] <= 0.5\ngini = 0.493\nsamples = 177\nvalue = [78, 99]", fillcolor="#d5eaf9"] ;
913 -> 914 ;
915 [label="X[12] <= 0.5\ngini = 0.491\nsamples = 175\nvalue = [76, 99]", fillcolor="#d1e8f9"] ;
914 -> 915 ;
916 [label="X[57] <= 0.5\ngini = 0.495\nsamples = 165\nvalue = [74, 91]", fillcolor="#daedfa"] ;
915 -> 916 ;
917 [label="X[44] <= 0.5\ngini = 0.496\nsamples = 162\nvalue = [74, 88]", fillcolor="#e0effb"] ;
916 -> 917 ;
918 [label="X[51] <= 0.5\ngini = 0.498\nsamples = 153\nvalue = [72, 81]", fillcolor="#e9f4fc"] ;
917 -> 918 ;
919 [label="X[85] <= 0.5\ngini = 0.5\nsamples = 140\nvalue = [68, 72]", fillcolor="#f4fafe"] ;
918 -> 919 ;
920 [label="X[60] <= 0.5\ngini = 0.5\nsamples = 139\nvalue = [68, 71]", fillcolor="#f7fbfe"] ;
919 -> 920 ;
921 [label="X[10] <= 0.5\ngini = 0.5\nsamples = 131\nvalue = [65, 66]", fillcolor="#fcfeff"] ;
920 -> 921 ;
922 [label="X[53] <= 0.5\ngini = 0.5\nsamples = 123\nvalue = [62, 61]", fillcolor="#fffdfc"] ;
921 -> 922 ;
923 [label="X[52] <= 0.5\ngini = 0.5\nsamples = 115\nvalue = [59, 56]", fillcolor="#fef9f5"] ;
922 -> 923 ;
924 [label="X[20] <= 0.5\ngini = 0.499\nsamples = 112\nvalue = [58, 54]", fillcolor="#fdf6f1"] ;
923 -> 924 ;
925 [label="X[102] <= 0.5\ngini = 0.5\nsamples = 98\nvalue = [50, 48]", fillcolor="#fefaf7"] ;
924 -> 925 ;
926 [label="X[49] <= 0.5\ngini = 0.5\nsamples = 93\nvalue = [47, 46]", fillcolor="#fefcfb"] ;
925 -> 926 ;
927 [label="X[35] <= 0.5\ngini = 0.5\nsamples = 88\nvalue = [44, 44]", fillcolor="#ffffff"] ;
926 -> 927 ;
928 [label="X[56] <= 0.5\ngini = 0.5\nsamples = 77\nvalue = [38, 39]", fillcolor="#fafcfe"] ;
927 -> 928 ;
929 [label="X[64] <= 0.5\ngini = 0.5\nsamples = 60\nvalue = [30, 30]", fillcolor="#ffffff"] ;
928 -> 929 ;
930 [label="X[61] <= 0.5\ngini = 0.5\nsamples = 26\nvalue = [13, 13]", fillcolor="#ffffff"] ;
929 -> 930 ;
931 [label="gini = 0.5\nsamples = 4\nvalue = [2, 2]", fillcolor="#ffffff"] ;
930 -> 931 ;
932 [label="gini = 0.5\nsamples = 22\nvalue = [11, 11]", fillcolor="#ffffff"] ;
930 -> 932 ;
933 [label="gini = 0.5\nsamples = 34\nvalue = [17, 17]", fillcolor="#ffffff"] ;
929 -> 933 ;
934 [label="gini = 0.498\nsamples = 17\nvalue = [8, 9]", fillcolor="#e9f4fc"] ;
928 -> 934 ;
935 [label="gini = 0.496\nsamples = 11\nvalue = [6, 5]", fillcolor="#fbeade"] ;
927 -> 935 ;
936 [label="gini = 0.48\nsamples = 5\nvalue = [3, 2]", fillcolor="#f6d5bd"] ;
926 -> 936 ;
937 [label="gini = 0.48\nsamples = 5\nvalue = [3, 2]", fillcolor="#f6d5bd"] ;
925 -> 937 ;
938 [label="gini = 0.49\nsamples = 14\nvalue = [8, 6]", fillcolor="#f8e0ce"] ;
924 -> 938 ;
939 [label="gini = 0.444\nsamples = 3\nvalue = [1, 2]", fillcolor="#9ccef2"] ;
923 -> 939 ;
940 [label="gini = 0.469\nsamples = 8\nvalue = [3, 5]", fillcolor="#b0d8f5"] ;
922 -> 940 ;
941 [label="gini = 0.469\nsamples = 8\nvalue = [3, 5]", fillcolor="#b0d8f5"] ;
921 -> 941 ;
942 [label="gini = 0.469\nsamples = 8\nvalue = [3, 5]", fillcolor="#b0d8f5"] ;
920 -> 942 ;
943 [label="gini = 0.0\nsamples = 1\nvalue = [0, 1]", fillcolor="#399de5"] ;
919 -> 943 ;
